FANN_FLO_2.0
num_layers=3
learning_rate=0.500000
connection_rate=1.000000
shortcut_connections=0
learning_momentum=0.000000
training_algorithm=2
train_error_function=1
train_stop_function=0
cascade_output_change_fraction=0.010000
quickprop_decay=-0.000100
quickprop_mu=1.750000
rprop_increase_factor=1.200000
rprop_decrease_factor=0.500000
rprop_delta_min=0.000000
rprop_delta_max=50.000000
rprop_delta_zero=0.500000
cascade_output_stagnation_epochs=12
cascade_candidate_change_fraction=0.010000
cascade_candidate_stagnation_epochs=12
cascade_max_out_epochs=150
cascade_max_cand_epochs=150
cascade_num_candidate_groups=2
bit_fail_limit=3.49999994039535520000e-001
cascade_candidate_limit=1.00000000000000000000e+003
cascade_weight_multiplier=4.00000005960464480000e-001
cascade_activation_functions_count=6
cascade_activation_functions=3 5 7 8 10 11 
cascade_activation_steepnesses_count=4
cascade_activation_steepnesses=2.50000000000000000000e-001 5.00000000000000000000e-001 7.50000000000000000000e-001 1.00000000000000000000e+000 
layer_sizes=101 56 11 
neurons (num_inputs, activation_function, activation_steepness)=(0, 0, 0.00000000000000000000e+000) (0, 0, 0.00000000000000000000e+000) (0, 0, 0.00000000000000000000e+000) (0, 0, 0.00000000000000000000e+000) (0, 0, 0.00000000000000000000e+000) (0, 0, 0.00000000000000000000e+000) (0, 0, 0.00000000000000000000e+000) (0, 0, 0.00000000000000000000e+000) (0, 0, 0.00000000000000000000e+000) (0, 0, 0.00000000000000000000e+000) (0, 0, 0.00000000000000000000e+000) (0, 0, 0.00000000000000000000e+000) (0, 0, 0.00000000000000000000e+000) (0, 0, 0.00000000000000000000e+000) (0, 0, 0.00000000000000000000e+000) (0, 0, 0.00000000000000000000e+000) (0, 0, 0.00000000000000000000e+000) (0, 0, 0.00000000000000000000e+000) (0, 0, 0.00000000000000000000e+000) (0, 0, 0.00000000000000000000e+000) (0, 0, 0.00000000000000000000e+000) (0, 0, 0.00000000000000000000e+000) (0, 0, 0.00000000000000000000e+000) (0, 0, 0.00000000000000000000e+000) (0, 0, 0.00000000000000000000e+000) (0, 0, 0.00000000000000000000e+000) (0, 0, 0.00000000000000000000e+000) (0, 0, 0.00000000000000000000e+000) (0, 0, 0.00000000000000000000e+000) (0, 0, 0.00000000000000000000e+000) (0, 0, 0.00000000000000000000e+000) (0, 0, 0.00000000000000000000e+000) (0, 0, 0.00000000000000000000e+000) (0, 0, 0.00000000000000000000e+000) (0, 0, 0.00000000000000000000e+000) (0, 0, 0.00000000000000000000e+000) (0, 0, 0.00000000000000000000e+000) (0, 0, 0.00000000000000000000e+000) (0, 0, 0.00000000000000000000e+000) (0, 0, 0.00000000000000000000e+000) (0, 0, 0.00000000000000000000e+000) (0, 0, 0.00000000000000000000e+000) (0, 0, 0.00000000000000000000e+000) (0, 0, 0.00000000000000000000e+000) (0, 0, 0.00000000000000000000e+000) (0, 0, 0.00000000000000000000e+000) (0, 0, 0.00000000000000000000e+000) (0, 0, 0.00000000000000000000e+000) (0, 0, 0.00000000000000000000e+000) (0, 0, 0.00000000000000000000e+000) (0, 0, 0.00000000000000000000e+000) (0, 0, 0.00000000000000000000e+000) (0, 0, 0.00000000000000000000e+000) (0, 0, 0.00000000000000000000e+000) (0, 0, 0.00000000000000000000e+000) (0, 0, 0.00000000000000000000e+000) (0, 0, 0.00000000000000000000e+000) (0, 0, 0.00000000000000000000e+000) (0, 0, 0.00000000000000000000e+000) (0, 0, 0.00000000000000000000e+000) (0, 0, 0.00000000000000000000e+000) (0, 0, 0.00000000000000000000e+000) (0, 0, 0.00000000000000000000e+000) (0, 0, 0.00000000000000000000e+000) (0, 0, 0.00000000000000000000e+000) (0, 0, 0.00000000000000000000e+000) (0, 0, 0.00000000000000000000e+000) (0, 0, 0.00000000000000000000e+000) (0, 0, 0.00000000000000000000e+000) (0, 0, 0.00000000000000000000e+000) (0, 0, 0.00000000000000000000e+000) (0, 0, 0.00000000000000000000e+000) (0, 0, 0.00000000000000000000e+000) (0, 0, 0.00000000000000000000e+000) (0, 0, 0.00000000000000000000e+000) (0, 0, 0.00000000000000000000e+000) (0, 0, 0.00000000000000000000e+000) (0, 0, 0.00000000000000000000e+000) (0, 0, 0.00000000000000000000e+000) (0, 0, 0.00000000000000000000e+000) (0, 0, 0.00000000000000000000e+000) (0, 0, 0.00000000000000000000e+000) (0, 0, 0.00000000000000000000e+000) (0, 0, 0.00000000000000000000e+000) (0, 0, 0.00000000000000000000e+000) (0, 0, 0.00000000000000000000e+000) (0, 0, 0.00000000000000000000e+000) (0, 0, 0.00000000000000000000e+000) (0, 0, 0.00000000000000000000e+000) (0, 0, 0.00000000000000000000e+000) (0, 0, 0.00000000000000000000e+000) (0, 0, 0.00000000000000000000e+000) (0, 0, 0.00000000000000000000e+000) (0, 0, 0.00000000000000000000e+000) (0, 0, 0.00000000000000000000e+000) (0, 0, 0.00000000000000000000e+000) (0, 0, 0.00000000000000000000e+000) (0, 0, 0.00000000000000000000e+000) (0, 0, 0.00000000000000000000e+000) (0, 0, 0.00000000000000000000e+000) (0, 0, 0.00000000000000000000e+000) (101, 4, 5.00000000000000000000e-001) (101, 4, 5.00000000000000000000e-001) (101, 4, 5.00000000000000000000e-001) (101, 4, 5.00000000000000000000e-001) (101, 4, 5.00000000000000000000e-001) (101, 4, 5.00000000000000000000e-001) (101, 4, 5.00000000000000000000e-001) (101, 4, 5.00000000000000000000e-001) (101, 4, 5.00000000000000000000e-001) (101, 4, 5.00000000000000000000e-001) (101, 4, 5.00000000000000000000e-001) (101, 4, 5.00000000000000000000e-001) (101, 4, 5.00000000000000000000e-001) (101, 4, 5.00000000000000000000e-001) (101, 4, 5.00000000000000000000e-001) (101, 4, 5.00000000000000000000e-001) (101, 4, 5.00000000000000000000e-001) (101, 4, 5.00000000000000000000e-001) (101, 4, 5.00000000000000000000e-001) (101, 4, 5.00000000000000000000e-001) (101, 4, 5.00000000000000000000e-001) (101, 4, 5.00000000000000000000e-001) (101, 4, 5.00000000000000000000e-001) (101, 4, 5.00000000000000000000e-001) (101, 4, 5.00000000000000000000e-001) (101, 4, 5.00000000000000000000e-001) (101, 4, 5.00000000000000000000e-001) (101, 4, 5.00000000000000000000e-001) (101, 4, 5.00000000000000000000e-001) (101, 4, 5.00000000000000000000e-001) (101, 4, 5.00000000000000000000e-001) (101, 4, 5.00000000000000000000e-001) (101, 4, 5.00000000000000000000e-001) (101, 4, 5.00000000000000000000e-001) (101, 4, 5.00000000000000000000e-001) (101, 4, 5.00000000000000000000e-001) (101, 4, 5.00000000000000000000e-001) (101, 4, 5.00000000000000000000e-001) (101, 4, 5.00000000000000000000e-001) (101, 4, 5.00000000000000000000e-001) (101, 4, 5.00000000000000000000e-001) (101, 4, 5.00000000000000000000e-001) (101, 4, 5.00000000000000000000e-001) (101, 4, 5.00000000000000000000e-001) (101, 4, 5.00000000000000000000e-001) (101, 4, 5.00000000000000000000e-001) (101, 4, 5.00000000000000000000e-001) (101, 4, 5.00000000000000000000e-001) (101, 4, 5.00000000000000000000e-001) (101, 4, 5.00000000000000000000e-001) (101, 4, 5.00000000000000000000e-001) (101, 4, 5.00000000000000000000e-001) (101, 4, 5.00000000000000000000e-001) (101, 4, 5.00000000000000000000e-001) (101, 4, 5.00000000000000000000e-001) (0, 4, 5.00000000000000000000e-001) (56, 4, 5.00000000000000000000e-001) (56, 4, 5.00000000000000000000e-001) (56, 4, 5.00000000000000000000e-001) (56, 4, 5.00000000000000000000e-001) (56, 4, 5.00000000000000000000e-001) (56, 4, 5.00000000000000000000e-001) (56, 4, 5.00000000000000000000e-001) (56, 4, 5.00000000000000000000e-001) (56, 4, 5.00000000000000000000e-001) (56, 4, 5.00000000000000000000e-001) (0, 4, 5.00000000000000000000e-001) 
connections (connected_to_neuron, weight)=(0, 1.06293475627899170000e+000) (1, 9.86212849617004390000e-001) (2, 3.00693899393081670000e-001) (3, 3.62626403570175170000e-001) (4, 8.72510951012372970000e-003) (5, -1.23619467020034790000e-001) (6, 9.90549325942993160000e-002) (7, 4.12042111158370970000e-001) (8, -2.07730993628501890000e-001) (9, 3.27297776937484740000e-001) (10, 5.81390023231506350000e-001) (11, 5.93276083469390870000e-001) (12, 4.64951574802398680000e-001) (13, 4.18428003787994380000e-001) (14, 2.57961213588714600000e-001) (15, -1.30678132176399230000e-001) (16, -2.28605404496192930000e-001) (17, 2.76482999324798580000e-001) (18, 2.95052733272314070000e-002) (19, -8.78170281648635860000e-002) (20, -4.40162748098373410000e-001) (21, -9.84991073608398440000e-001) (22, -1.17378985881805420000e+000) (23, -1.05611670017242430000e+000) (24, -9.59283411502838130000e-001) (25, 3.99928092956542970000e-002) (26, 2.48649138957262040000e-002) (27, -2.46205046772956850000e-001) (28, -2.78180599212646480000e-001) (29, -2.99060523509979250000e-001) (30, -1.00381898880004880000e+000) (31, -5.97719967365264890000e-001) (32, 2.50369042158126830000e-001) (33, -1.11015230417251590000e-001) (34, -4.12907272577285770000e-001) (35, -4.87913116812705990000e-002) (36, 1.02494411170482640000e-001) (37, -1.23606532812118530000e-001) (38, -1.28012867644429210000e-002) (39, -3.54650765657424930000e-001) (40, -8.03112208843231200000e-001) (41, -2.29891940951347350000e-001) (42, 9.61552977561950680000e-001) (43, 7.27505326271057130000e-001) (44, 1.03184700012207030000e+000) (45, 3.71876209974288940000e-001) (46, 1.23417750000953670000e-001) (47, 2.38768547773361210000e-001) (48, 2.79389321804046630000e-001) (49, -8.32918658852577210000e-002) (50, -5.97639262676239010000e-001) (51, -5.46070098876953130000e-001) (52, -3.89178723096847530000e-001) (53, -3.59633237123489380000e-001) (54, 1.56523779034614560000e-001) (55, 7.85530731081962590000e-002) (56, 2.23898082971572880000e-001) (57, -1.87638923525810240000e-001) (58, -2.06608101725578310000e-001) (59, -2.50804483890533450000e-001) (60, 3.63543123006820680000e-001) (61, -7.61526823043823240000e-002) (62, -5.20309031009674070000e-001) (63, -1.23893284797668460000e+000) (64, -1.31972777843475340000e+000) (65, -1.19894790649414060000e+000) (66, -8.42424213886260990000e-001) (67, -1.72970131039619450000e-001) (68, -5.03258220851421360000e-002) (69, 1.29417210817337040000e-001) (70, 1.54076233506202700000e-001) (71, 1.48142531514167790000e-001) (72, 1.32723560091108080000e-003) (73, 1.67963102459907530000e-001) (74, 1.10258318483829500000e-001) (75, -5.15656530857086180000e-001) (76, -4.81175146996974950000e-002) (77, -3.30997221171855930000e-002) (78, 4.15943600237369540000e-002) (79, 2.00373291969299320000e-001) (80, 4.24265056848526000000e-001) (81, -9.28493291139602660000e-002) (82, 1.40956759452819820000e-001) (83, 2.11754441261291500000e-001) (84, 5.43149471282958980000e-001) (85, 2.94240713119506840000e-001) (86, 4.41022552549839020000e-002) (87, -2.90037125349044800000e-001) (88, -4.28762376308441160000e-001) (89, -6.80870175361633300000e-001) (90, 1.76495075225830080000e-001) (91, -1.52880594134330750000e-001) (92, 5.28778135776519780000e-002) (93, 7.28157768025994300000e-003) (94, 2.73429363965988160000e-001) (95, 1.82840809226036070000e-001) (96, 2.08207249641418460000e-001) (97, -4.28904920816421510000e-001) (98, -1.02455461025238040000e+000) (99, -9.71988201141357420000e-001) (100, -1.56170893460512160000e-002) (0, 2.70482629537582400000e-001) (1, 1.56971856951713560000e-001) (2, 1.05585813522338870000e-001) (3, -1.51390045881271360000e-001) (4, -9.14379134774208070000e-002) (5, -1.79300606250762940000e-001) (6, -1.35319039225578310000e-001) (7, 1.07948742806911470000e-001) (8, 6.20096437633037570000e-002) (9, 1.19362846016883850000e-001) (10, 1.44796565175056460000e-001) (11, 1.89509749412536620000e-001) (12, 2.37531185150146480000e-001) (13, 1.38531729578971860000e-001) (14, 1.41368191689252850000e-002) (15, -6.08124993741512300000e-002) (16, -2.05560192465782170000e-001) (17, -2.24056616425514220000e-002) (18, 2.28547126054763790000e-001) (19, 5.84864057600498200000e-002) (20, 5.66016286611557010000e-002) (21, -1.78319796919822690000e-001) (22, -3.20696830749511720000e-002) (23, -1.21556773781776430000e-001) (24, -1.11645348370075230000e-002) (25, -1.17351502180099490000e-001) (26, 6.58409446477890010000e-002) (27, -8.58692601323127750000e-002) (28, -2.19305534847080710000e-003) (29, 1.48731395602226260000e-001) (30, -1.60305842757225040000e-001) (31, -3.67542475461959840000e-001) (32, -2.51216113567352290000e-001) (33, 2.51475442200899120000e-002) (34, 7.65933375805616380000e-003) (35, 6.44850507378578190000e-002) (36, 1.14876978099346160000e-001) (37, -3.45224738121032710000e-001) (38, -3.85659337043762210000e-002) (39, 6.02043187245726590000e-003) (40, 1.17165688425302510000e-002) (41, -2.23663821816444400000e-001) (42, -1.56235024333000180000e-001) (43, -6.57161399722099300000e-002) (44, 2.50693649053573610000e-001) (45, 1.50001212954521180000e-001) (46, -1.48453503847122190000e-001) (47, -2.19085380434989930000e-001) (48, -2.68228679895401000000e-001) (49, -8.33069831132888790000e-002) (50, -3.10313582420349120000e-001) (51, -1.54301151633262630000e-002) (52, -8.51570349186658860000e-003) (53, 1.07013031840324400000e-001) (54, 2.20654815435409550000e-001) (55, 3.04273456335067750000e-001) (56, 1.98026150465011600000e-001) (57, -2.29115456342697140000e-001) (58, -2.25175231695175170000e-001) (59, -1.26030027866363530000e-001) (60, -3.69112193584442140000e-001) (61, -1.49942949414253230000e-001) (62, -2.84964203834533690000e-001) (63, -2.77110263705253600000e-002) (64, 1.44691407680511470000e-001) (65, 1.60129770636558530000e-001) (66, 2.66996659338474270000e-002) (67, -2.35504214651882650000e-003) (68, 2.32878014445304870000e-001) (69, -5.95572330057621000000e-002) (70, -2.55293995141983030000e-001) (71, -1.63214251399040220000e-001) (72, -3.50602328777313230000e-001) (73, -1.85101732611656190000e-001) (74, -1.05252422392368320000e-001) (75, -1.51579678058624270000e-001) (76, -1.01816922426223750000e-001) (77, -6.51204809546470640000e-002) (78, -1.43983379006385800000e-001) (79, -2.17081829905509950000e-001) (80, -3.67802269756793980000e-002) (81, 2.10502464324235920000e-002) (82, 5.97797371447086330000e-002) (83, 1.64789408445358280000e-001) (84, -2.26880833506584170000e-002) (85, -2.06774041056633000000e-001) (86, -1.53128027915954590000e-001) (87, -2.65308827161788940000e-001) (88, -6.12835526466369630000e-001) (89, -6.44028186798095700000e-001) (90, 4.33060154318809510000e-002) (91, 1.96548312902450560000e-001) (92, 3.31521868705749510000e-001) (93, 3.24329465627670290000e-001) (94, 3.00345987081527710000e-001) (95, 4.56593632698059080000e-002) (96, -1.19747482240200040000e-001) (97, -4.17252302169799800000e-001) (98, -7.22045481204986570000e-001) (99, -5.18502116203308110000e-001) (100, -1.64733350276947020000e-001) (0, -3.84129822254180910000e-001) (1, -1.55300917103886600000e-002) (2, 2.97692239284515380000e-001) (3, 3.77960085868835450000e-001) (4, 1.92041754722595210000e-001) (5, 8.93472194671630860000e-001) (6, 2.43893768638372420000e-002) (7, -9.75524961948394780000e-001) (8, -1.01324450969696040000e+000) (9, -4.44120615720748900000e-001) (10, 2.31255367398262020000e-001) (11, -9.31446969509124760000e-001) (12, -8.37649881839752200000e-001) (13, -7.36601948738098140000e-001) (14, -6.19964957237243650000e-001) (15, -2.25545525550842290000e-001) (16, -9.13163572549819950000e-002) (17, -3.50231021642684940000e-001) (18, -1.28540360927581790000e+000) (19, -1.22166919708251950000e+000) (20, 2.12014123797416690000e-001) (21, 2.08267718553543090000e-001) (22, -2.57424324750900270000e-001) (23, -5.84859549999237060000e-001) (24, 1.01868879795074460000e+000) (25, 4.21912908554077150000e-001) (26, -2.21207126975059510000e-001) (27, -7.66620755195617680000e-001) (28, -3.25144141912460330000e-001) (29, 5.71742132306098940000e-002) (30, 6.47875070571899410000e-001) (31, 3.52030694484710690000e-001) (32, -1.98411256074905400000e-001) (33, 2.57189333438873290000e-001) (34, 1.12453317642211910000e+000) (35, -2.77994483709335330000e-001) (36, -3.95604372024536130000e-001) (37, 2.77344703674316410000e-001) (38, -9.57731306552886960000e-001) (39, -3.00602763891220090000e-001) (40, 2.96432048082351680000e-001) (41, 1.84693670272827150000e+000) (42, 8.39978277683258060000e-001) (43, 1.32600367069244380000e+000) (44, 1.13233995437622070000e+000) (45, 1.06233847141265870000e+000) (46, 5.82886040210723880000e-001) (47, 7.31140434741973880000e-001) (48, 4.43687707185745240000e-001) (49, -4.62318569421768190000e-001) (50, 2.74675369262695310000e-001) (51, 1.35857596993446350000e-001) (52, 1.39760935306549070000e+000) (53, 1.24811804294586180000e+000) (54, 6.12072288990020750000e-001) (55, -2.53077954053878780000e-001) (56, -3.81894826889038090000e-001) (57, 3.44186037778854370000e-001) (58, 2.20565110445022580000e-001) (59, -3.28435748815536500000e-001) (60, 2.33396127820014950000e-001) (61, 4.75756585597991940000e-001) (62, 2.14440941810607910000e+000) (63, 1.47385668754577640000e+000) (64, 4.72964733839035030000e-001) (65, -1.27867686748504640000e+000) (66, -6.52587711811065670000e-001) (67, -5.89645743370056150000e-001) (68, 2.26656675338745120000e-001) (69, 2.88076728582382200000e-001) (70, 1.01420986652374270000e+000) (71, 3.37462335824966430000e-001) (72, 1.87981915473937990000e+000) (73, 1.83886718750000000000e+000) (74, 9.58545923233032230000e-001) (75, -7.05541074275970460000e-001) (76, -1.39279830455780030000e+000) (77, -6.45321965217590330000e-001) (78, 3.38345110416412350000e-001) (79, 6.69396817684173580000e-001) (80, 8.58173668384552000000e-001) (81, -6.12237215042114260000e-001) (82, -6.68185591697692870000e-001) (83, -6.09789371490478520000e-001) (84, -1.29606699943542480000e+000) (85, -7.92969286441802980000e-001) (86, -1.30344700813293460000e+000) (87, -8.19834768772125240000e-001) (88, -6.46610140800476070000e-001) (89, -4.81767028570175170000e-001) (90, -8.67180824279785160000e-001) (91, -7.83329010009765630000e-001) (92, -5.37178039550781250000e-001) (93, -1.59398269653320310000e+000) (94, -2.34567832946777340000e+000) (95, -2.22570037841796870000e+000) (96, -1.57513999938964840000e+000) (97, -9.66188967227935790000e-001) (98, -2.05587714910507200000e-001) (99, 2.58844047784805300000e-001) (100, -9.72490668296813960000e-001) (0, 6.96436822414398190000e-001) (1, 1.21418571472167970000e+000) (2, 1.09515106678009030000e+000) (3, 4.47994947433471680000e-001) (4, -9.31378751993179320000e-002) (5, -4.61122751235961910000e-001) (6, -5.71475505828857420000e-001) (7, -6.99787616729736330000e-001) (8, -7.78269767761230470000e-001) (9, -6.89337030053138730000e-002) (10, 9.17451381683349610000e-001) (11, 5.80267667770385740000e-001) (12, 4.42980587482452390000e-001) (13, -4.10739444196224210000e-002) (14, 8.97946953773498540000e-002) (15, 2.88823097944259640000e-002) (16, -6.04864418506622310000e-001) (17, -9.85047936439514160000e-001) (18, -9.71799254417419430000e-001) (19, -6.31386160850524900000e-001) (20, -2.97535985708236690000e-001) (21, -3.12626421451568600000e-001) (22, -7.16736912727355960000e-001) (23, -1.01424360275268550000e+000) (24, -3.29977273941040040000e-001) (25, 1.07683193683624270000e+000) (26, 1.36530172824859620000e+000) (27, 1.27445304393768310000e+000) (28, 5.94755113124847410000e-002) (29, -7.96861171722412110000e-001) (30, -1.03745234012603760000e+000) (31, -8.14689695835113530000e-001) (32, -6.27707123756408690000e-001) (33, -1.08096933364868160000e+000) (34, -8.97103250026702880000e-001) (35, 3.72131824493408200000e-001) (36, 5.40427863597869870000e-001) (37, 8.86316657066345210000e-001) (38, 3.72096210718154910000e-001) (39, -3.61841946840286250000e-001) (40, -1.18986070156097410000e+000) (41, -4.32601481676101680000e-001) (42, 1.70220896601676940000e-001) (43, -5.07939040660858150000e-001) (44, -9.39508914947509770000e-001) (45, -1.13184964656829830000e+000) (46, -1.67876943945884700000e-001) (47, 1.38713866472244260000e-001) (48, -1.16178579628467560000e-002) (49, -1.32626503705978390000e-001) (50, -4.03283804655075070000e-001) (51, -1.01691290736198430000e-001) (52, 5.27074933052062990000e-001) (53, 6.05308473110198970000e-001) (54, -7.01725423336029050000e-001) (55, -1.40439593791961670000e+000) (56, -4.47795897722244260000e-001) (57, -9.84808430075645450000e-003) (58, 8.32796394824981690000e-002) (59, 1.13132640719413760000e-001) (60, 1.69901587069034580000e-002) (61, 7.34277307987213130000e-001) (62, 7.58883476257324220000e-001) (63, 1.43632248044013980000e-001) (64, -5.69251239299774170000e-001) (65, -1.68193078041076660000e+000) (66, -1.05776548385620120000e+000) (67, -6.00882768630981450000e-001) (68, -3.29103410243988040000e-001) (69, 3.03052783012390140000e-001) (70, -1.44422993063926700000e-001) (71, 2.93090999126434330000e-001) (72, 8.10725390911102290000e-001) (73, 3.02701741456985470000e-001) (74, 2.82736495137214660000e-003) (75, -2.12153308093547820000e-002) (76, -2.22244441509246830000e-001) (77, -7.66071211546659470000e-003) (78, 8.79242643713951110000e-002) (79, -7.59222209453582760000e-002) (80, 4.48236912488937380000e-001) (81, -4.85176354646682740000e-001) (82, -4.76939648389816280000e-001) (83, 2.44953393936157230000e-001) (84, 5.03528594970703130000e-001) (85, 3.09946030378341670000e-001) (86, -7.99000859260559080000e-002) (87, 1.82494968175888060000e-001) (88, -5.20534478127956390000e-002) (89, -4.67324405908584590000e-002) (90, -2.89731115102767940000e-001) (91, -3.90920281410217290000e-001) (92, -3.68692636489868160000e-001) (93, -1.79756835103034970000e-001) (94, -1.90533354878425600000e-001) (95, -4.05056655406951900000e-001) (96, -1.79445087909698490000e-001) (97, -6.79954066872596740000e-002) (98, -1.12589702010154720000e-001) (99, -1.31653577089309690000e-001) (100, 1.42969667911529540000e-001) (0, -2.16348648071289060000e-001) (1, 1.25540360808372500000e-001) (2, 1.49943962693214420000e-001) (3, 1.51303842663764950000e-001) (4, 4.10031586885452270000e-001) (5, -3.72036509215831760000e-002) (6, 6.18396177887916560000e-002) (7, -1.28846332430839540000e-001) (8, -2.49670416116714480000e-001) (9, -3.37674319744110110000e-001) (10, 1.86134740710258480000e-001) (11, 4.78238046169281010000e-001) (12, 2.68012523651123050000e-001) (13, 3.26112359762191770000e-001) (14, 1.81139066815376280000e-001) (15, 5.51024600863456730000e-002) (16, 2.10898518562316890000e-002) (17, -9.25416797399520870000e-002) (18, -4.08543556928634640000e-001) (19, -5.24927318096160890000e-001) (20, 1.80867046117782590000e-001) (21, 1.79063409566879270000e-001) (22, -1.58905670046806340000e-001) (23, 1.39483913779258730000e-001) (24, -3.90316724777221680000e-001) (25, -4.22603785991668700000e-001) (26, -5.29635190963745120000e-001) (27, -4.85274523496627810000e-001) (28, -6.54178917407989500000e-001) (29, -5.52784085273742680000e-001) (30, -5.83624899387359620000e-001) (31, -5.74830733239650730000e-002) (32, -2.11510106921195980000e-001) (33, -7.05239951610565190000e-001) (34, -4.20483857393264770000e-001) (35, -1.35702833533287050000e-001) (36, -3.78113597631454470000e-001) (37, -9.60056960582733150000e-001) (38, -7.08644509315490720000e-001) (39, -5.67544817924499510000e-001) (40, -1.68647885322570800000e-001) (41, -2.43518859148025510000e-001) (42, -3.36257278919219970000e-001) (43, -5.81393480300903320000e-001) (44, -2.61380344629287720000e-001) (45, -1.41203910112380980000e-001) (46, 5.27086993679404260000e-003) (47, 2.07375034689903260000e-001) (48, 5.34861870110034940000e-002) (49, 7.55350962281227110000e-002) (50, -5.33891439437866210000e-001) (51, -2.82258629798889160000e-001) (52, -4.11226451396942140000e-002) (53, 1.11370615661144260000e-001) (54, 6.49323523044586180000e-001) (55, 4.94089489802718160000e-003) (56, -2.70086139440536500000e-001) (57, 9.11715328693389890000e-002) (58, 6.89676880836486820000e-001) (59, 6.08002245426177980000e-001) (60, -4.08661901950836180000e-001) (61, -9.39634859561920170000e-001) (62, -1.11694610118865970000e+000) (63, -4.31778073310852050000e-001) (64, -8.44427868723869320000e-002) (65, -4.70421969890594480000e-001) (66, -8.33259940147399900000e-001) (67, -2.44022250175476070000e-001) (68, 2.26684942841529850000e-001) (69, 4.84903752803802490000e-001) (70, 2.42431461811065670000e-001) (71, -2.01305583119392400000e-001) (72, -8.15792143344879150000e-001) (73, -9.45774376392364500000e-001) (74, -5.87798893451690670000e-001) (75, -5.70772171020507810000e-001) (76, -1.25105127692222600000e-001) (77, -3.00675779581069950000e-001) (78, -4.42568846046924590000e-002) (79, -3.81986573338508610000e-002) (80, 8.28583002090454100000e-001) (81, 1.30350422859191890000e+000) (82, 8.10863435268402100000e-001) (83, 1.84540256857872010000e-001) (84, -2.36620053648948670000e-001) (85, -1.27599492669105530000e-001) (86, -7.05919936299324040000e-002) (87, -5.67435771226882930000e-002) (88, 3.35580736398696900000e-001) (89, 6.69285561889410020000e-003) (90, 4.31025534868240360000e-001) (91, 4.44374650716781620000e-001) (92, 8.33244860172271730000e-001) (93, 3.96484524011611940000e-001) (94, 4.11868065595626830000e-001) (95, 4.80013608932495120000e-001) (96, 3.40341329574584960000e-001) (97, -9.34304967522621150000e-002) (98, -3.30512583255767820000e-001) (99, -9.56501886248588560000e-002) (100, 1.00465103983879090000e-001) (0, -1.75570607185363770000e-001) (1, -3.33849750459194180000e-002) (2, 6.14966079592704770000e-002) (3, 2.90405787527561190000e-002) (4, -1.96538772433996200000e-002) (5, -7.31715112924575810000e-002) (6, 7.81656727194786070000e-002) (7, -6.24902881681919100000e-002) (8, -1.27622291445732120000e-001) (9, 1.02272806689143180000e-002) (10, -4.87723387777805330000e-002) (11, -1.33995205163955690000e-001) (12, -1.49808377027511600000e-001) (13, -1.82787641882896420000e-001) (14, -1.03912584483623500000e-001) (15, -8.37361738085746770000e-002) (16, 3.79181057214736940000e-002) (17, 8.44931080937385560000e-002) (18, -2.77514625340700150000e-002) (19, -6.86351060867309570000e-002) (20, 5.90694323182106020000e-002) (21, -1.41890704631805420000e-001) (22, -1.39213263988494870000e-001) (23, -8.24157521128654480000e-002) (24, -1.52165874838829040000e-001) (25, -1.37698799371719360000e-001) (26, -1.34356200695037840000e-001) (27, -6.45080879330635070000e-002) (28, 6.75065256655216220000e-003) (29, -1.07044279575347900000e-001) (30, 1.11987406853586440000e-003) (31, 1.80975496768951420000e-002) (32, 7.77804851531982420000e-002) (33, -1.06357797980308530000e-001) (34, 1.47867342457175250000e-002) (35, -3.64346429705619810000e-002) (36, -1.23128153383731840000e-001) (37, -1.36441409587860110000e-001) (38, -1.94549545645713810000e-001) (39, -5.03708608448505400000e-002) (40, 3.74288819730281830000e-002) (41, -6.08106665313243870000e-002) (42, 2.60376259684562680000e-002) (43, -1.01472087204456330000e-001) (44, -4.93440926074981690000e-002) (45, -3.31879928708076480000e-002) (46, -8.45024287700653080000e-002) (47, -1.12625695765018460000e-001) (48, 3.45780178904533390000e-002) (49, -1.07187822461128230000e-001) (50, -4.86358180642127990000e-002) (51, 2.20415531657636170000e-003) (52, -1.73212401568889620000e-002) (53, 2.01101340353488920000e-002) (54, -1.06052361428737640000e-001) (55, -6.06578178703784940000e-002) (56, -6.44664540886878970000e-002) (57, -8.29610303044319150000e-002) (58, -7.77219906449317930000e-002) (59, -8.62680450081825260000e-002) (60, -8.69393572211265560000e-002) (61, -9.14888083934783940000e-003) (62, -2.80727688223123550000e-002) (63, 8.63878726959228520000e-002) (64, -6.29050210118293760000e-002) (65, 1.13287074491381650000e-002) (66, -6.62998333573341370000e-002) (67, -1.91542461514472960000e-001) (68, -1.00790290161967280000e-002) (69, 1.41163229942321780000e-001) (70, -1.36236369609832760000e-001) (71, -6.98779011145234110000e-003) (72, -7.60285258293151860000e-002) (73, 3.45301926136016850000e-002) (74, -3.31801362335681920000e-002) (75, -1.21157065033912660000e-001) (76, -1.56056404113769530000e-001) (77, -1.77161201834678650000e-001) (78, -6.22784011065959930000e-002) (79, 1.50496196001768110000e-002) (80, -6.57183378934860230000e-002) (81, -8.95182192325592040000e-002) (82, -2.04097792506217960000e-001) (83, -2.01581791043281560000e-001) (84, -6.08943849802017210000e-002) (85, -9.93074849247932430000e-002) (86, -1.40251040458679200000e-001) (87, -1.78198829293251040000e-001) (88, -7.26559758186340330000e-002) (89, -1.17591664195060730000e-001) (90, -3.07451803237199780000e-002) (91, 6.43474757671356200000e-002) (92, -1.32440924644470210000e-001) (93, -1.37405440211296080000e-001) (94, -1.51112854480743410000e-001) (95, -5.69805987179279330000e-002) (96, -3.36866267025470730000e-002) (97, -5.56727759540081020000e-002) (98, -7.74420145899057390000e-003) (99, -1.10882133245468140000e-001) (100, -3.76511365175247190000e-002) (0, -2.65904031693935390000e-002) (1, 1.45571291446685790000e-001) (2, 1.77212879061698910000e-002) (3, -1.51093572378158570000e-001) (4, 8.87579377740621570000e-003) (5, -1.30418345332145690000e-001) (6, 9.48415789753198620000e-003) (7, 1.96802273392677310000e-001) (8, 2.41907015442848210000e-001) (9, 1.44360691308975220000e-001) (10, 1.73841476440429690000e-001) (11, -1.37736760079860690000e-002) (12, 5.78522831201553340000e-002) (13, -6.76256269216537480000e-002) (14, -9.39133912324905400000e-002) (15, 3.61282266676425930000e-002) (16, -3.75003851950168610000e-002) (17, 1.39653101563453670000e-001) (18, 1.98254719376564030000e-001) (19, 1.23454913496971130000e-001) (20, 9.84168052673339840000e-002) (21, -1.11072964966297150000e-001) (22, -5.45470491051673890000e-002) (23, -5.24862743914127350000e-002) (24, 1.23416386544704440000e-001) (25, -9.76252742111682890000e-003) (26, 7.06078857183456420000e-002) (27, -1.26436948776245120000e-001) (28, -5.96080571413040160000e-002) (29, 6.83908537030220030000e-002) (30, -2.84344375133514400000e-001) (31, -1.10715508460998540000e-001) (32, 1.65612809360027310000e-002) (33, 1.71918831765651700000e-002) (34, -2.51585282385349270000e-002) (35, -7.80153721570968630000e-002) (36, -1.88770443201065060000e-001) (37, -1.89605727791786190000e-001) (38, -3.33655402064323430000e-002) (39, -5.71021027863025670000e-002) (40, -2.33983352780342100000e-001) (41, -2.91425794363021850000e-001) (42, -1.15275695919990540000e-001) (43, -1.83622092008590700000e-001) (44, -5.94939216971397400000e-002) (45, 1.15435972809791560000e-001) (46, -3.02112996578216550000e-001) (47, -3.59131246805191040000e-002) (48, -1.07476867735385890000e-001) (49, 7.72038623690605160000e-002) (50, -2.34886422753334050000e-001) (51, -1.04912957176566120000e-002) (52, -1.12631544470787050000e-001) (53, -6.91101476550102230000e-002) (54, 3.29254893586039540000e-004) (55, -1.36866793036460880000e-001) (56, -2.16308534145355220000e-001) (57, -2.66074746847152710000e-001) (58, -2.14461132884025570000e-001) (59, -1.52584880590438840000e-001) (60, -4.08187471330165860000e-002) (61, -1.26752495765686040000e-001) (62, -1.57015085220336910000e-001) (63, -4.98742572963237760000e-002) (64, -2.14247144758701320000e-002) (65, -4.19986397027969360000e-002) (66, 1.94013658910989760000e-002) (67, -2.61395186185836790000e-001) (68, -1.10538825392723080000e-001) (69, 5.94364702701568600000e-002) (70, -1.12462371587753300000e-001) (71, -1.98513403534889220000e-001) (72, -3.11325401067733760000e-001) (73, -1.23223587870597840000e-001) (74, -5.56466281414031980000e-002) (75, 6.58133029937744140000e-002) (76, 1.22071735560894010000e-001) (77, 2.04860325902700420000e-002) (78, 9.92409512400627140000e-002) (79, 3.41230956837534900000e-003) (80, 3.34602110087871550000e-002) (81, -1.97328060865402220000e-001) (82, -2.45352134108543400000e-001) (83, -3.24532270431518550000e-001) (84, -8.02834779024124150000e-002) (85, -1.93790957331657410000e-001) (86, -1.55258327722549440000e-001) (87, 1.17689751088619230000e-001) (88, -9.90745201706886290000e-002) (89, -1.62851169705390930000e-001) (90, 1.90031807869672780000e-002) (91, -7.86876305937767030000e-002) (92, -1.53331160545349120000e-001) (93, -3.78761813044548030000e-002) (94, 2.79817059636116030000e-002) (95, -5.53936064243316650000e-002) (96, 4.39291028305888180000e-003) (97, -1.34281069040298460000e-001) (98, -1.38562247157096860000e-001) (99, -1.46332368254661560000e-001) (100, 1.99782419949769970000e-002) (0, -3.87184798717498780000e-001) (1, -5.15149123966693880000e-002) (2, -1.17224358022212980000e-001) (3, -4.09744866192340850000e-002) (4, 1.64712578058242800000e-001) (5, 2.17358380556106570000e-001) (6, -5.00836297869682310000e-002) (7, -3.37932825088500980000e-001) (8, -1.27890080213546750000e-001) (9, -1.89143612980842590000e-001) (10, -1.23820215463638310000e-001) (11, -1.99707925319671630000e-001) (12, -5.88501170277595520000e-002) (13, -2.78149813413620000000e-001) (14, -3.52419734001159670000e-001) (15, -1.28106191754341130000e-001) (16, 5.98663151264190670000e-001) (17, 2.76953518390655520000e-001) (18, 2.10552334785461430000e-001) (19, -4.71760928630828860000e-002) (20, 3.24663698673248290000e-001) (21, 3.42724263668060300000e-001) (22, 2.98077404499053960000e-001) (23, 4.18233871459960940000e-001) (24, 7.36188650131225590000e-001) (25, 4.50476497411727910000e-001) (26, 3.12352061271667480000e-001) (27, -4.24900233745574950000e-001) (28, 1.40258252620697020000e-001) (29, -5.20999915897846220000e-002) (30, 2.93341726064682010000e-001) (31, 8.46458375453948970000e-002) (32, 1.05812616646289830000e-001) (33, 6.64779961109161380000e-001) (34, 5.84994971752166750000e-001) (35, -1.58879399299621580000e-001) (36, -1.15989816188812260000e+000) (37, -7.93782651424407960000e-001) (38, -7.00117111206054690000e-001) (39, -6.20294272899627690000e-001) (40, 1.38288289308547970000e-001) (41, 1.73384144902229310000e-001) (42, 1.35578900575637820000e-001) (43, 4.61343854665756230000e-001) (44, 4.90822911262512210000e-001) (45, 4.29363131523132320000e-001) (46, -2.21300363540649410000e-001) (47, -2.30491161346435550000e-002) (48, -1.23858898878097530000e-001) (49, -4.05338883399963380000e-001) (50, 4.16396439075469970000e-001) (51, -2.61566340923309330000e-001) (52, -3.35166841745376590000e-001) (53, 2.67753511667251590000e-001) (54, 4.72695410251617430000e-001) (55, 2.71110743284225460000e-001) (56, 1.50154352188110350000e-001) (57, 6.02473095059394840000e-002) (58, 3.28664183616638180000e-001) (59, -1.26352369785308840000e-001) (60, 1.37087851762771610000e-001) (61, -9.63308960199356080000e-002) (62, -8.74878227710723880000e-001) (63, -1.39175117015838620000e-001) (64, 2.17204481363296510000e-001) (65, 4.79243934154510500000e-001) (66, 1.21293865144252780000e-001) (67, -4.91717785596847530000e-001) (68, 2.00768619775772090000e-001) (69, 8.05626094341278080000e-001) (70, -3.43409240245819090000e-001) (71, 1.14866225048899650000e-002) (72, -4.51250255107879640000e-001) (73, -6.24661743640899660000e-001) (74, -5.17548173666000370000e-002) (75, 2.69751280546188350000e-001) (76, 3.87515604496002200000e-001) (77, -1.95162847638130190000e-001) (78, 2.34155356884002690000e-002) (79, 5.94140410423278810000e-001) (80, -5.24055361747741700000e-001) (81, -3.00123214721679690000e-001) (82, -7.90229141712188720000e-001) (83, -8.54007184505462650000e-001) (84, -7.09558784961700440000e-001) (85, -2.89995104074478150000e-001) (86, -3.24487626552581790000e-001) (87, -5.26085853576660160000e-001) (88, -3.62660557031631470000e-001) (89, -1.29801169037818910000e-001) (90, -3.72573733329772950000e-001) (91, -6.17774546146392820000e-001) (92, -5.99108278751373290000e-001) (93, -6.26006960868835450000e-001) (94, -6.53210401535034180000e-001) (95, -7.15190529823303220000e-001) (96, -7.14771926403045650000e-001) (97, -5.43166279792785640000e-001) (98, -3.14051419496536250000e-001) (99, -1.40773192048072810000e-001) (100, -3.87043803930282590000e-001) (0, -1.49123713374137880000e-001) (1, -8.43970850110054020000e-002) (2, -2.14542061090469360000e-001) (3, -2.05555006861686710000e-001) (4, 3.49236667156219480000e-001) (5, 1.32175385951995850000e-001) (6, 2.11666509509086610000e-001) (7, 2.21457004547119140000e-001) (8, 1.88676089048385620000e-001) (9, -2.90506154298782350000e-001) (10, -8.48349481821060180000e-002) (11, -3.69414538145065310000e-001) (12, -4.00800913572311400000e-001) (13, -1.25912249088287350000e-001) (14, -7.58766233921051030000e-002) (15, -8.29372629523277280000e-002) (16, 4.24711436033248900000e-001) (17, 5.44700026512146000000e-001) (18, 2.06663981080055240000e-001) (19, -1.70060813426971440000e-001) (20, 3.87453436851501460000e-001) (21, 1.18137232959270480000e-001) (22, 2.95997783541679380000e-002) (23, 1.60694539546966550000e-001) (24, -3.43102991580963130000e-001) (25, -1.17603123188018800000e+000) (26, -1.42251491546630860000e+000) (27, -1.84905505180358890000e+000) (28, -1.56319618225097660000e+000) (29, -7.64339864253997800000e-001) (30, 2.07154795527458190000e-001) (31, 3.27889055013656620000e-001) (32, 1.67802035808563230000e-001) (33, 2.53235965967178340000e-001) (34, 1.44906222820281980000e-001) (35, 6.14900188520550730000e-003) (36, -2.98207640647888180000e-001) (37, -7.94584155082702640000e-001) (38, -1.14572131633758540000e+000) (39, -6.67276918888092040000e-001) (40, 1.30841284990310670000e-001) (41, -2.99032237380743030000e-002) (42, 2.66556516289711000000e-002) (43, -3.24225246906280520000e-001) (44, 4.62551005184650420000e-002) (45, 5.46963751316070560000e-001) (46, 7.76488959789276120000e-001) (47, 9.89182770252227780000e-001) (48, 7.68917024135589600000e-001) (49, 2.19437450170516970000e-001) (50, 4.60672229528427120000e-001) (51, 5.55481314659118650000e-001) (52, -6.29366561770439150000e-002) (53, -5.82568466663360600000e-001) (54, -5.55124938488006590000e-001) (55, -1.26207542419433590000e+000) (56, -5.08312284946441650000e-001) (57, 9.97650027275085450000e-002) (58, 5.97903966903686520000e-001) (59, 5.30480921268463130000e-001) (60, 4.70181018114089970000e-001) (61, 1.22313059866428380000e-001) (62, -3.04428815841674800000e-001) (63, -1.85994833707809450000e-001) (64, -1.44384186714887620000e-002) (65, -6.20238482952117920000e-001) (66, -8.68571639060974120000e-001) (67, -6.86300933361053470000e-001) (68, 5.81171154975891110000e-001) (69, 3.63254338502883910000e-001) (70, -8.61557275056838990000e-002) (71, 2.73053228855133060000e-001) (72, -4.33569066226482390000e-002) (73, -6.94573894143104550000e-002) (74, 6.17681369185447690000e-002) (75, -1.64005994796752930000e-001) (76, -2.81945168972015380000e-001) (77, -4.53350663185119630000e-001) (78, 1.59608408808708190000e-001) (79, 3.18342447280883790000e-001) (80, -3.79315823316574100000e-001) (81, -8.19417685270309450000e-002) (82, -2.26555705070495610000e-001) (83, -1.17752663791179660000e-002) (84, -7.29449912905693050000e-002) (85, 1.00675843656063080000e-001) (86, 1.55091928318142890000e-002) (87, -1.88133448362350460000e-001) (88, 1.40836775302886960000e-001) (89, -2.66304016113281250000e-001) (90, 2.47088178992271420000e-001) (91, 1.40425458550453190000e-001) (92, 2.27014526724815370000e-001) (93, -1.75917536020278930000e-001) (94, 2.74701088666915890000e-001) (95, 3.43349725008010860000e-001) (96, 1.23785205185413360000e-001) (97, 1.01982355117797850000e-001) (98, -2.33994320034980770000e-001) (99, -2.29334145784378050000e-001) (100, -4.16289657354354860000e-001) (0, 1.28706246614456180000e-002) (1, -5.30774258077144620000e-002) (2, -4.31425571441650390000e-001) (3, -4.82975065708160400000e-001) (4, -2.66884028911590580000e-001) (5, -4.03290599584579470000e-001) (6, -2.28928148746490480000e-001) (7, 1.52760863304138180000e-001) (8, 3.03159169852733610000e-002) (9, -3.34774851799011230000e-002) (10, -3.06230008602142330000e-001) (11, -2.62730926275253300000e-001) (12, -2.49850422143936160000e-001) (13, 1.41984624788165090000e-002) (14, 5.10482728481292720000e-001) (15, 2.39341869950294490000e-001) (16, -1.02184146642684940000e-001) (17, 2.93766379356384280000e-001) (18, 2.65544652938842770000e-001) (19, 2.98853486776351930000e-001) (20, 2.26598931476473810000e-003) (21, -7.62997418642044070000e-002) (22, -1.61056667566299440000e-001) (23, 2.51724738627672200000e-002) (24, -1.65965244174003600000e-001) (25, -1.67744141072034840000e-002) (26, -6.18827193975448610000e-002) (27, 2.34286889433860780000e-001) (28, 1.30584999918937680000e-001) (29, 4.36564356088638310000e-001) (30, 1.67336389422416690000e-001) (31, 3.10385674238204960000e-001) (32, 2.69707858562469480000e-001) (33, 4.60234805941581730000e-002) (34, -3.19295942783355710000e-001) (35, -2.18762665987014770000e-001) (36, 4.35542762279510500000e-001) (37, 2.77397274971008300000e-001) (38, -1.51437014341354370000e-001) (39, 1.14583447575569150000e-001) (40, 3.75660695135593410000e-002) (41, 6.13083779811859130000e-001) (42, 3.78423452377319340000e-001) (43, -9.86532121896743770000e-003) (44, 1.11995615065097810000e-001) (45, -1.90210551023483280000e-001) (46, -2.89834532886743550000e-002) (47, -2.88409411907196040000e-001) (48, -4.76660311222076420000e-001) (49, 3.34779545664787290000e-003) (50, -4.68848615884780880000e-001) (51, 3.22350531816482540000e-001) (52, 4.13491785526275630000e-001) (53, -3.38623613119125370000e-001) (54, -9.11679342389106750000e-002) (55, -2.15335458517074580000e-001) (56, -3.64004254341125490000e-001) (57, -2.86684542894363400000e-001) (58, -3.06133210659027100000e-001) (59, 1.95819795131683350000e-001) (60, -7.42613792419433590000e-001) (61, -8.01813304424285890000e-002) (62, 4.52893339097499850000e-002) (63, -3.98160308599472050000e-001) (64, -5.32950818538665770000e-001) (65, -6.64439499378204350000e-001) (66, -9.53361928462982180000e-001) (67, -7.42473125457763670000e-001) (68, -4.68106627464294430000e-001) (69, 1.68848708271980290000e-002) (70, -4.58418965339660640000e-001) (71, -2.26535610854625700000e-002) (72, 3.35055381059646610000e-001) (73, 3.30215305089950560000e-001) (74, 2.71287322044372560000e-001) (75, -4.38997209072113040000e-001) (76, -1.09987223148345950000e+000) (77, -1.05513453483581540000e+000) (78, -4.30366069078445430000e-001) (79, -5.56917581707239150000e-003) (80, -2.68037348985672000000e-001) (81, -4.11878257989883420000e-001) (82, 1.25712841749191280000e-001) (83, 3.81808221340179440000e-001) (84, 4.30811941623687740000e-001) (85, 2.25960835814476010000e-001) (86, -7.68570005893707280000e-002) (87, -2.85623501986265180000e-002) (88, -5.97140826284885410000e-002) (89, -2.65515930950641630000e-002) (90, -1.73906236886978150000e-001) (91, -1.15352775901556020000e-002) (92, 1.61895886063575740000e-001) (93, 1.48742571473121640000e-001) (94, 8.58275219798088070000e-002) (95, 3.26992660760879520000e-001) (96, 3.14218491315841670000e-001) (97, 3.55578958988189700000e-001) (98, 1.88696905970573430000e-001) (99, 3.56351882219314580000e-001) (100, -1.99790969491004940000e-001) (0, 2.23421737551689150000e-001) (1, 2.23778650164604190000e-001) (2, -2.80230939388275150000e-002) (3, -6.00401945412158970000e-002) (4, -2.79622912406921390000e-001) (5, -1.77218094468116760000e-001) (6, -4.36991341412067410000e-002) (7, 1.14442020654678340000e-001) (8, 1.49129137396812440000e-001) (9, 1.62146970629692080000e-001) (10, 1.22046396136283870000e-001) (11, 2.39193961024284360000e-001) (12, 1.11820310354232790000e-001) (13, 1.31491795182228090000e-001) (14, -8.64739587996155020000e-004) (15, 2.06205751746892930000e-002) (16, -9.21974927186965940000e-002) (17, 1.03615909814834590000e-001) (18, 1.46566241979599000000e-001) (19, 1.20070250704884530000e-002) (20, -8.85410513728857040000e-003) (21, -5.18535003066062930000e-002) (22, -1.30626991391181950000e-001) (23, -5.37431016564369200000e-002) (24, -9.55115770921111110000e-004) (25, 1.13795623183250430000e-001) (26, 1.20039120316505430000e-001) (27, -9.87582951784133910000e-002) (28, 9.01554971933364870000e-002) (29, 9.29744765162467960000e-002) (30, -2.60903954505920410000e-001) (31, -8.48478898406028750000e-002) (32, -3.26100252568721770000e-002) (33, -3.80617044866085050000e-002) (34, -7.84097611904144290000e-003) (35, -2.07550123333930970000e-001) (36, -7.88248255848884580000e-002) (37, 5.96386231482028960000e-002) (38, -5.31196929514408110000e-002) (39, 6.53036534786224370000e-002) (40, -1.28536984324455260000e-001) (41, -1.79944112896919250000e-001) (42, -2.77189791202545170000e-001) (43, -1.48447930812835690000e-001) (44, -1.96139112114906310000e-001) (45, -2.76976108551025390000e-001) (46, -3.57771992683410640000e-001) (47, -2.56773754954338070000e-002) (48, 1.28366071730852130000e-002) (49, 9.14048627018928530000e-002) (50, -5.52295856177806850000e-002) (51, -7.19672366976737980000e-002) (52, -8.53961929678916930000e-002) (53, -6.75353333353996280000e-002) (54, -4.98478040099143980000e-002) (55, -3.20005536079406740000e-001) (56, -3.41219156980514530000e-001) (57, -1.05508714914321900000e-001) (58, -9.04103294014930730000e-002) (59, -1.30488559603691100000e-001) (60, 5.07004521787166600000e-002) (61, -2.76456642895936970000e-002) (62, -2.38033503293991090000e-001) (63, -1.61193162202835080000e-001) (64, -1.31386846303939820000e-001) (65, -3.96317422389984130000e-001) (66, -3.81246119737625120000e-001) (67, -1.13104857504367830000e-001) (68, -4.35550361871719360000e-002) (69, 2.24816456437110900000e-001) (70, 2.11973324418067930000e-001) (71, 3.78339402377605440000e-002) (72, -1.27221450209617610000e-001) (73, -3.21616590023040770000e-001) (74, -1.64692074060440060000e-001) (75, -3.75189840793609620000e-001) (76, -3.93918454647064210000e-001) (77, 3.92467081546783450000e-002) (78, 2.41936445236206050000e-001) (79, 2.34909310936927800000e-001) (80, 3.85681986808776860000e-001) (81, -1.65486447513103490000e-002) (82, -1.30695372819900510000e-001) (83, -2.86489188671112060000e-001) (84, -1.76804587244987490000e-001) (85, -4.24792826175689700000e-001) (86, -2.86472439765930180000e-001) (87, 1.06520898640155790000e-001) (88, 1.45345687866210940000e-001) (89, -1.01818956434726720000e-001) (90, 9.16515439748764040000e-002) (91, 1.50681614875793460000e-001) (92, 1.33475705981254580000e-001) (93, -5.44180274009704590000e-002) (94, -1.63349971175193790000e-001) (95, -2.53627598285675050000e-001) (96, -1.52539372444152830000e-001) (97, 2.02878232812508940000e-004) (98, -2.45411664247512820000e-001) (99, -4.19742986559867860000e-002) (100, 4.45736162364482880000e-002) (0, 8.25984701514244080000e-002) (1, 3.29504936933517460000e-001) (2, 1.92969262599945070000e-001) (3, 1.46881312131881710000e-001) (4, 4.47778869420289990000e-003) (5, -1.56910762190818790000e-001) (6, -2.15598374605178830000e-001) (7, -2.15708371251821520000e-003) (8, -2.08023533225059510000e-001) (9, -2.53921747207641600000e-003) (10, 1.89503043889999390000e-001) (11, 1.38567656278610230000e-001) (12, 1.24106742441654210000e-001) (13, 1.41980290412902830000e-001) (14, 1.02195918560028080000e-001) (15, -1.15488968789577480000e-001) (16, -2.17753857374191280000e-001) (17, -1.62731129676103590000e-002) (18, -1.67144134640693660000e-001) (19, 1.10019249841570850000e-002) (20, -2.27095693349838260000e-001) (21, -1.74569278955459590000e-001) (22, -2.48373582959175110000e-001) (23, -1.72187566757202150000e-001) (24, -1.74639552831649780000e-001) (25, -1.26502141356468200000e-001) (26, -1.99287772178649900000e-001) (27, -1.19551524519920350000e-001) (28, -6.92816227674484250000e-002) (29, 8.24392139911651610000e-002) (30, -5.15897333621978760000e-001) (31, -2.69736468791961670000e-001) (32, -2.73508895188570020000e-002) (33, -2.68120586872100830000e-001) (34, -2.87562221288681030000e-001) (35, -2.51668065786361690000e-001) (36, -2.09140732884407040000e-001) (37, -3.21031510829925540000e-001) (38, -4.70893457531929020000e-002) (39, -4.34992052614688870000e-002) (40, -2.13431313633918760000e-001) (41, -1.68907329440116880000e-001) (42, -1.86904594302177430000e-001) (43, -2.99531519412994380000e-001) (44, -9.37073454260826110000e-002) (45, -1.69757708907127380000e-001) (46, -2.12598219513893130000e-001) (47, 1.11263588070869450000e-001) (48, 2.62139827013015750000e-001) (49, -4.38475087285041810000e-002) (50, -1.97217673063278200000e-001) (51, -1.45633906126022340000e-001) (52, -1.30198031663894650000e-001) (53, 1.26381710171699520000e-001) (54, 4.38170641660690310000e-001) (55, 1.05591379106044770000e-001) (56, -3.01062967628240590000e-002) (57, 1.23720742762088780000e-001) (58, 3.15359979867935180000e-002) (59, 9.39668565988540650000e-002) (60, -1.03427082300186160000e-001) (61, -3.38181167840957640000e-001) (62, -3.63143533468246460000e-001) (63, 1.88363250344991680000e-002) (64, -9.11081656813621520000e-002) (65, -1.99486985802650450000e-001) (66, -3.95003408193588260000e-001) (67, -3.87945063412189480000e-002) (68, 2.49925330281257630000e-001) (69, 2.15170755982398990000e-001) (70, 2.62663662433624270000e-001) (71, -1.62485733628273010000e-001) (72, -3.76116037368774410000e-001) (73, -4.48842495679855350000e-001) (74, -5.14244258403778080000e-001) (75, -6.69270813465118410000e-001) (76, -4.73428666591644290000e-001) (77, -1.46245792508125310000e-001) (78, 1.32115289568901060000e-001) (79, 1.32622435688972470000e-001) (80, 3.49883168935775760000e-001) (81, 1.40950173139572140000e-001) (82, 1.00447490811347960000e-001) (83, -8.12429562211036680000e-002) (84, -2.85134077072143550000e-001) (85, -1.77552014589309690000e-001) (86, -2.76706248521804810000e-001) (87, 1.16915777325630190000e-002) (88, 6.48321770131587980000e-003) (89, -1.12218827009201050000e-001) (90, 2.46314778923988340000e-002) (91, 1.52407824993133540000e-001) (92, 2.90098458528518680000e-001) (93, 9.65981036424636840000e-002) (94, 7.35106319189071660000e-002) (95, 6.72462210059165950000e-002) (96, 9.94821861386299130000e-002) (97, -2.94571854174137120000e-002) (98, -4.61558878421783450000e-001) (99, -1.88665121793746950000e-001) (100, -3.80022302269935610000e-002) (0, 4.32464092969894410000e-001) (1, 4.15311455726623540000e-001) (2, 7.11033195257186890000e-002) (3, -3.05222451686859130000e-001) (4, -4.48421448469161990000e-001) (5, -4.30056095123291020000e-001) (6, -2.30807259678840640000e-001) (7, -7.78438225388526920000e-002) (8, 3.38958144187927250000e-001) (9, 4.61179077625274660000e-001) (10, 3.89379441738128660000e-001) (11, 2.83677577972412110000e-001) (12, 3.20917546749114990000e-001) (13, 1.21116168797016140000e-001) (14, 7.05744847655296330000e-002) (15, 1.89580157399177550000e-001) (16, -2.49739170074462890000e-001) (17, -1.18370205163955690000e-001) (18, 3.58260683715343480000e-002) (19, 1.38618454337120060000e-001) (20, 1.05273500084877010000e-002) (21, -1.50445088744163510000e-001) (22, -1.67641848325729370000e-001) (23, -2.18910172581672670000e-001) (24, -3.29053178429603580000e-002) (25, 1.86155289411544800000e-001) (26, 1.86046808958053590000e-001) (27, 4.47160154581069950000e-002) (28, 1.46834358572959900000e-001) (29, 4.09028023481369020000e-001) (30, -3.92182618379592900000e-001) (31, -3.54248881340026860000e-001) (32, -2.01917052268981930000e-001) (33, 1.37507259845733640000e-001) (34, -3.20146558806300160000e-004) (35, -4.17569801211357120000e-002) (36, 1.01502232253551480000e-001) (37, -1.29281789064407350000e-001) (38, 2.01650172472000120000e-001) (39, 3.17686647176742550000e-001) (40, -3.19117695093154910000e-001) (41, -3.27066719532012940000e-001) (42, -2.15555414557456970000e-001) (43, -1.54377728700637820000e-001) (44, 2.05475077033042910000e-001) (45, 4.07110452651977540000e-001) (46, -1.88024193048477170000e-001) (47, -3.04274886846542360000e-001) (48, 8.43148026615381240000e-003) (49, 7.28062167763710020000e-002) (50, -3.97388428449630740000e-001) (51, -1.57493963837623600000e-001) (52, -1.37722477316856380000e-001) (53, 1.45419999957084660000e-001) (54, 1.28720298409461980000e-001) (55, 3.16683910787105560000e-002) (56, -1.32863745093345640000e-001) (57, -1.51016429066658020000e-001) (58, -4.28280293941497800000e-001) (59, -2.27408826351165770000e-001) (60, -3.62544149160385130000e-001) (61, -3.04415747523307800000e-002) (62, 1.94007419049739840000e-002) (63, 1.79678231477737430000e-001) (64, -6.68389443308115010000e-003) (65, -1.44327253103256230000e-001) (66, -1.14158794283866880000e-001) (67, -2.75080621242523190000e-001) (68, -2.50187292695045470000e-002) (69, 1.08750544488430020000e-001) (70, -8.05417001247406010000e-002) (71, -1.77113097161054610000e-002) (72, -2.00953692197799680000e-001) (73, 1.10664732754230500000e-001) (74, 1.69849589467048650000e-001) (75, -5.15914149582386020000e-003) (76, 4.90773580968379970000e-002) (77, 1.85475766658782960000e-001) (78, 2.72314429283142090000e-001) (79, 1.36664390563964840000e-001) (80, 2.96462327241897580000e-001) (81, 3.44306007027626040000e-002) (82, 3.00400368869304660000e-002) (83, -6.01662583649158480000e-002) (84, -4.70205247402191160000e-002) (85, -3.46023708581924440000e-001) (86, -3.53176146745681760000e-001) (87, -2.07842051982879640000e-001) (88, -3.65579426288604740000e-001) (89, -6.04316473007202150000e-001) (90, -9.96919199824333190000e-002) (91, 9.42654311656951900000e-002) (92, 2.31462582945823670000e-001) (93, 3.95751178264617920000e-001) (94, 1.99832603335380550000e-001) (95, -8.54177922010421750000e-002) (96, -2.24747315049171450000e-001) (97, -5.50038874149322510000e-001) (98, -7.11031854152679440000e-001) (99, -7.86743998527526860000e-001) (100, 1.03216066956520080000e-001) (0, 7.34727323055267330000e-001) (1, 3.39094221591949460000e-001) (2, -6.38237476348876950000e-001) (3, -9.71646785736083980000e-001) (4, -1.19329071044921870000e+000) (5, -1.49957478046417240000e+000) (6, -8.24295520782470700000e-001) (7, -2.81988352537155150000e-001) (8, 5.36516830325126650000e-002) (9, -4.13362711668014530000e-001) (10, 6.31300032138824460000e-001) (11, 3.65513890981674190000e-001) (12, -3.51123996078968050000e-002) (13, -3.98612082004547120000e-001) (14, -2.52838850021362300000e-001) (15, -2.26117730140686040000e-001) (16, 1.00003749132156370000e-001) (17, 4.46033746004104610000e-001) (18, 3.42233061790466310000e-001) (19, -4.80251848697662350000e-001) (20, -3.94325964152812960000e-002) (21, 3.72546128928661350000e-002) (22, 5.82618594169616700000e-001) (23, 1.03383982181549070000e+000) (24, 8.31052720546722410000e-001) (25, 1.31933975219726560000e+000) (26, 1.15908384323120120000e+000) (27, 4.00976985692977910000e-001) (28, 2.31013700366020200000e-001) (29, 3.77682328224182130000e-001) (30, -6.62581861019134520000e-001) (31, -4.14363175630569460000e-001) (32, 2.58209079504013060000e-001) (33, 8.67596045136451720000e-002) (34, -3.87881845235824580000e-001) (35, 1.11285775899887080000e-001) (36, -2.32648015022277830000e-001) (37, -6.25195920467376710000e-001) (38, -5.96129179000854490000e-001) (39, -7.11439624428749080000e-002) (40, 2.33483403921127320000e-001) (41, -3.74297332018613820000e-003) (42, 8.22494179010391240000e-002) (43, -3.93985837697982790000e-001) (44, -1.74990117549896240000e-001) (45, -4.42141205072402950000e-001) (46, -5.99819362163543700000e-001) (47, -4.28464621305465700000e-001) (48, -7.83999919891357420000e-001) (49, -6.04590475559234620000e-001) (50, -3.04422557353973390000e-001) (51, 5.06274998188018800000e-001) (52, -1.29911154508590700000e-001) (53, -1.87720015645027160000e-001) (54, 4.73058432340621950000e-001) (55, 2.36495822668075560000e-001) (56, 2.75583714246749880000e-001) (57, -1.17898970842361450000e-001) (58, -3.54616612195968630000e-001) (59, -1.05657899379730220000e+000) (60, -2.27596148848533630000e-001) (61, -3.19463573396205900000e-002) (62, -1.06158554553985600000e+000) (63, -7.88402736186981200000e-001) (64, -4.57973122596740720000e-001) (65, -4.56428200006484990000e-001) (66, -1.15400135517120360000e+000) (67, -5.15522420406341550000e-001) (68, 3.95382165908813480000e-001) (69, 4.69147354364395140000e-001) (70, -7.63081192970275880000e-001) (71, -6.85731709003448490000e-001) (72, -4.61753368377685550000e-001) (73, -7.13228762149810790000e-001) (74, -1.04581081867218020000e+000) (75, -1.88756012916564940000e+000) (76, -1.79206621646881100000e+000) (77, -7.91678309440612790000e-001) (78, 2.30181321501731870000e-001) (79, 6.54175221920013430000e-001) (80, 1.93141579627990720000e-001) (81, 2.65552580356597900000e-001) (82, 3.88948947191238400000e-001) (83, 1.18610836565494540000e-001) (84, -3.97242277860641480000e-001) (85, -7.97787904739379880000e-001) (86, -4.41901773214340210000e-001) (87, 2.86577753722667690000e-002) (88, 8.40216398239135740000e-001) (89, 2.11631357669830320000e-001) (90, 1.35219871997833250000e-001) (91, 6.94965943694114690000e-002) (92, 6.60440698266029360000e-002) (93, 5.75846791267395020000e-001) (94, 7.35336720943450930000e-001) (95, 4.90192949771881100000e-001) (96, 5.00917494297027590000e-001) (97, 3.05665701627731320000e-001) (98, -3.42815811745822430000e-003) (99, 2.08447232842445370000e-001) (100, -1.03035584092140200000e-001) (0, 6.81789159774780270000e-001) (1, 1.02368265390396120000e-001) (2, -8.23114633560180660000e-001) (3, -1.36397588253021240000e+000) (4, -1.00611984729766850000e+000) (5, -1.09095323085784910000e+000) (6, -6.65274560451507570000e-001) (7, 2.03001406043767930000e-002) (8, 6.77910745143890380000e-001) (9, 6.85433626174926760000e-001) (10, 1.94365531206130980000e-001) (11, -8.83807167410850520000e-002) (12, -7.32103362679481510000e-002) (13, 5.63836507499217990000e-002) (14, 1.02239586412906650000e-001) (15, 2.27115541696548460000e-001) (16, -2.20588713884353640000e-001) (17, -2.18510162085294720000e-002) (18, 3.50287616252899170000e-001) (19, 7.14393377304077150000e-001) (20, -9.41777527332305910000e-002) (21, -7.76304006576538090000e-001) (22, -3.63455027341842650000e-001) (23, 7.56258564069867130000e-003) (24, 7.91985392570495610000e-001) (25, 7.68277347087860110000e-001) (26, 4.13067281246185300000e-001) (27, -3.10196608304977420000e-001) (28, 5.78625142574310300000e-001) (29, 1.20302736759185790000e+000) (30, -6.91962182521820070000e-001) (31, -1.39534687995910640000e+000) (32, -1.24181663990020750000e+000) (33, 1.75451375544071200000e-002) (34, 3.83279889822006230000e-001) (35, 3.09894949197769170000e-001) (36, -1.06122724711894990000e-001) (37, 5.13246506452560420000e-002) (38, 8.29926908016204830000e-001) (39, 5.51289916038513180000e-001) (40, -6.28515183925628660000e-001) (41, -9.00131523609161380000e-001) (42, -1.16308522224426270000e+000) (43, -1.00394105911254880000e+000) (44, 4.20385986566543580000e-001) (45, 1.43153905868530270000e+000) (46, 2.39308908581733700000e-001) (47, 3.01819354295730590000e-001) (48, 4.94100570678710940000e-001) (49, 8.15542876720428470000e-001) (50, -7.63673007488250730000e-001) (51, -6.51393532752990720000e-001) (52, -7.57252037525177000000e-001) (53, -2.50003039836883540000e-001) (54, -4.23716977238655090000e-002) (55, 2.69708484411239620000e-001) (56, 9.62348058819770810000e-002) (57, 2.59045325219631200000e-002) (58, 2.24384680390357970000e-001) (59, 4.16767895221710210000e-001) (60, -8.12776446342468260000e-001) (61, -5.89741051197052000000e-001) (62, -6.01253688335418700000e-001) (63, -1.73992484807968140000e-001) (64, 2.91362088173627850000e-002) (65, 3.24136137962341310000e-001) (66, 3.30276668071746830000e-001) (67, 5.31574189662933350000e-001) (68, 1.09082531929016110000e+000) (69, 7.48724162578582760000e-001) (70, -5.55798172950744630000e-001) (71, -3.99801544845104220000e-002) (72, -4.90267366170883180000e-001) (73, -4.26462531089782710000e-001) (74, 1.35466411709785460000e-001) (75, 4.66011852025985720000e-001) (76, 7.90062904357910160000e-001) (77, 1.41300392150878910000e+000) (78, 9.39225852489471440000e-001) (79, 4.63247865438461300000e-001) (80, -3.94293367862701420000e-001) (81, -5.83192169666290280000e-001) (82, -6.43616557121276860000e-001) (83, -9.90058243274688720000e-001) (84, -5.53036391735076900000e-001) (85, -8.46999406814575200000e-001) (86, -3.66567879915237430000e-001) (87, -1.80785894393920900000e-001) (88, -7.22133994102478030000e-001) (89, -1.24830687046051030000e+000) (90, -8.18867325782775880000e-001) (91, -8.36752593517303470000e-001) (92, -7.15648949146270750000e-001) (93, -1.36311024427413940000e-001) (94, -2.64316722750663760000e-002) (95, -3.44342410564422610000e-001) (96, -5.69647073745727540000e-001) (97, -5.77723443508148190000e-001) (98, -9.87841725349426270000e-001) (99, -9.82864975929260250000e-001) (100, 1.56761147081851960000e-002) (0, 8.05153965950012210000e-001) (1, 2.09793657064437870000e-001) (2, -3.85705791413784030000e-002) (3, 1.67459249496459960000e-001) (4, -2.15679630637168880000e-001) (5, -2.58825689554214480000e-001) (6, -1.18864737451076510000e-002) (7, -1.19144693017005920000e-001) (8, -4.65600281953811650000e-001) (9, -3.96138012409210210000e-001) (10, 1.60678431391716000000e-001) (11, -7.64608919620513920000e-001) (12, -7.22382485866546630000e-001) (13, -5.65580666065216060000e-001) (14, -8.33621144294738770000e-001) (15, -8.49733173847198490000e-001) (16, -1.42704755067825320000e-001) (17, 3.69143813848495480000e-001) (18, 6.78318917751312260000e-001) (19, 2.97259166836738590000e-002) (20, 5.83622336387634280000e-001) (21, 1.82355552911758420000e-001) (22, 3.90071094036102290000e-001) (23, -2.43444507941603660000e-003) (24, 1.09229338169097900000e+000) (25, 5.27706325054168700000e-001) (26, 6.13531410694122310000e-001) (27, -8.18538427352905270000e-001) (28, -8.93859028816223140000e-001) (29, 5.26290237903594970000e-002) (30, 1.23679637908935550000e+000) (31, 3.62710267305374150000e-001) (32, 5.67969083786010740000e-001) (33, 1.00821927189826970000e-001) (34, 1.25620138645172120000e+000) (35, 8.25743563473224640000e-003) (36, -2.43511438369750980000e-001) (37, 1.49306505918502810000e-001) (38, -7.87381350994110110000e-001) (39, -2.19093605875968930000e-001) (40, 6.34485781192779540000e-001) (41, 5.17229259014129640000e-001) (42, 4.75636482238769530000e-001) (43, 5.89939057826995850000e-001) (44, 7.70589292049407960000e-001) (45, 8.51874053478240970000e-001) (46, 2.05477744340896610000e-001) (47, -3.60898613929748540000e-001) (48, -1.95360988378524780000e-001) (49, -9.74298298358917240000e-001) (50, 1.53851103782653810000e+000) (51, 1.76701450347900390000e+000) (52, 7.71770179271698000000e-001) (53, 3.50154459476470950000e-001) (54, -7.93636292219161990000e-002) (55, -1.39106523990631100000e+000) (56, -6.10667288303375240000e-001) (57, -1.54651492834091190000e-001) (58, 7.93664753437042240000e-002) (59, -8.91268849372863770000e-001) (60, 1.68330109119415280000e+000) (61, 2.77111387252807620000e+000) (62, 1.09858846664428710000e+000) (63, -6.14996254444122310000e-001) (64, -1.84909534454345700000e+000) (65, -2.83978748321533200000e+000) (66, -1.76486134529113770000e+000) (67, -9.86635923385620120000e-001) (68, 5.13752222061157230000e-001) (69, 4.50224243104457860000e-002) (70, 5.33426761627197270000e-001) (71, 9.63421463966369630000e-001) (72, 7.94433057308197020000e-001) (73, 5.83112001419067380000e-001) (74, -1.54286134243011470000e+000) (75, -3.21901702880859380000e+000) (76, -1.75693321228027340000e+000) (77, -5.19723474979400630000e-001) (78, -3.36041808128356930000e-001) (79, 2.47417818754911420000e-002) (80, -2.01652079820632930000e-001) (81, -1.80667281150817870000e-001) (82, -1.57269120216369630000e-001) (83, -1.28629982471466060000e-001) (84, -7.24963009357452390000e-001) (85, -1.06191658973693850000e+000) (86, -9.51342999935150150000e-001) (87, -6.67213976383209230000e-001) (88, 1.52625096961855890000e-003) (89, -3.98962855339050290000e-001) (90, -3.38028371334075930000e-001) (91, 2.04310610890388490000e-001) (92, 4.79971110820770260000e-001) (93, -2.71702259778976440000e-001) (94, -1.02743886411190030000e-001) (95, -1.26701425760984420000e-002) (96, -5.01126766204833980000e-001) (97, -2.03430056571960450000e-001) (98, -3.17328535020351410000e-002) (99, 2.35276162624359130000e-001) (100, -1.17676651477813720000e+000) (0, -1.96808919310569760000e-001) (1, -8.83387684822082520000e-001) (2, -1.41953289508819580000e+000) (3, -1.35094833374023440000e+000) (4, -4.23390299081802370000e-001) (5, -6.49826884269714360000e-001) (6, -3.15191805362701420000e-001) (7, 2.81219959259033200000e-001) (8, 1.00804829597473140000e+000) (9, -3.42840373516082760000e-001) (10, -2.60286509990692140000e-001) (11, -5.40372490882873540000e-001) (12, -6.60014808177948000000e-001) (13, -4.82987970113754270000e-001) (14, -2.84829497337341310000e-001) (15, 2.44034454226493840000e-001) (16, 8.34366142749786380000e-001) (17, 3.72528403997421260000e-001) (18, 7.27888941764831540000e-001) (19, 2.03597778454422950000e-003) (20, 3.12305212020874020000e-001) (21, 6.60691335797309880000e-002) (22, 4.59827363491058350000e-001) (23, 7.80327975749969480000e-001) (24, 6.39661371707916260000e-001) (25, 4.65349107980728150000e-001) (26, 2.44265109300613400000e-001) (27, -1.23796507716178890000e-001) (28, -2.41325184702873230000e-001) (29, -5.96899330615997310000e-001) (30, 7.54722058773040770000e-001) (31, 1.91264599561691280000e-001) (32, 2.95485943555831910000e-001) (33, 8.66063714027404790000e-001) (34, 7.03088402748107910000e-001) (35, 3.52680385112762450000e-001) (36, -1.87399208545684810000e-001) (37, -3.34453523159027100000e-001) (38, -6.28494203090667720000e-001) (39, -6.87040209770202640000e-001) (40, 5.81702709197998050000e-001) (41, 8.62533152103424070000e-001) (42, 6.04940295219421390000e-001) (43, 7.19292700290679930000e-001) (44, 3.86477768421173100000e-001) (45, -8.54587554931640630000e-002) (46, -5.04884421825408940000e-001) (47, -2.39871159195899960000e-001) (48, -3.99487435817718510000e-001) (49, 1.46152362227439880000e-001) (50, -1.27111017704010010000e-001) (51, -4.75414991378784180000e-001) (52, -5.93370556831359860000e-001) (53, -7.05617904663085940000e-001) (54, -4.24784570932388310000e-001) (55, -2.13034167885780330000e-001) (56, -4.46593403816223140000e-001) (57, -3.00003975629806520000e-001) (58, 1.73296481370925900000e-001) (59, -1.40366077423095700000e-001) (60, -7.62187182903289790000e-001) (61, -5.78060269355773930000e-001) (62, -1.26155173778533940000e+000) (63, -1.09829378128051760000e+000) (64, -3.89567106962203980000e-001) (65, 1.89521729946136470000e-001) (66, 5.92336595058441160000e-001) (67, 4.79462474584579470000e-001) (68, 6.47396922111511230000e-001) (69, 5.79715609550476070000e-001) (70, -9.18694496154785160000e-001) (71, -3.88394176959991460000e-001) (72, -6.76396667957305910000e-001) (73, -1.06041920185089110000e+000) (74, -3.51384669542312620000e-001) (75, 2.95910894870758060000e-001) (76, 4.75177764892578130000e-001) (77, 3.80666345357894900000e-001) (78, 3.31436783075332640000e-001) (79, 8.00837159156799320000e-001) (80, -1.74823328852653500000e-001) (81, 1.75601705908775330000e-001) (82, 1.73794701695442200000e-002) (83, -3.87289464473724370000e-001) (84, -2.07704886794090270000e-001) (85, -1.78157433867454530000e-001) (86, -3.35983149707317350000e-002) (87, -5.50974190235137940000e-001) (88, -1.71865254640579220000e-001) (89, 1.91731497645378110000e-001) (90, 4.05720293521881100000e-001) (91, 1.87417060136795040000e-001) (92, 6.64212182164192200000e-002) (93, 2.94875532388687130000e-001) (94, 3.68561953306198120000e-001) (95, 1.64696518331766130000e-002) (96, -2.35356047749519350000e-001) (97, -4.30116027593612670000e-001) (98, 1.43529802560806270000e-001) (99, -7.62628391385078430000e-002) (100, -4.79967981576919560000e-001) (0, -1.27093806862831120000e-001) (1, -1.50475502014160160000e-001) (2, 6.26560002565383910000e-002) (3, 9.95333027094602580000e-003) (4, 7.44555741548538210000e-002) (5, 3.74728925526142120000e-002) (6, 5.19218435510993000000e-003) (7, -8.90153124928474430000e-002) (8, 5.39766438305377960000e-002) (9, -3.59614267945289610000e-002) (10, -1.09377108514308930000e-001) (11, -1.18765689432621000000e-001) (12, -2.26823948323726650000e-002) (13, -6.73358291387557980000e-002) (14, -3.92432920634746550000e-002) (15, -1.50599658489227290000e-001) (16, -1.13207571208477020000e-001) (17, -3.86374108493328090000e-002) (18, -2.87565253674983980000e-002) (19, 5.06099052727222440000e-002) (20, -9.81900840997695920000e-002) (21, 5.80001361668109890000e-002) (22, -8.43356922268867490000e-002) (23, -6.72312527894973750000e-002) (24, -1.41954764723777770000e-001) (25, 1.21695920825004580000e-003) (26, -6.91561549901962280000e-002) (27, -4.49535623192787170000e-002) (28, -9.89908576011657710000e-002) (29, 6.30172267556190490000e-002) (30, 2.82201226800680160000e-002) (31, 4.51002232730388640000e-002) (32, -5.96177279949188230000e-002) (33, -1.04717157781124110000e-001) (34, -1.62064991891384120000e-002) (35, -5.08215390145778660000e-002) (36, -1.90900161862373350000e-001) (37, -1.22562935575842860000e-002) (38, -1.14770263433456420000e-001) (39, 5.56381270289421080000e-002) (40, 1.44303813576698300000e-002) (41, 3.95997650921344760000e-002) (42, 1.75201836973428730000e-002) (43, -9.97889563441276550000e-002) (44, -1.76229059696197510000e-001) (45, -1.86672180891036990000e-001) (46, -1.76895678043365480000e-001) (47, -2.41079851984977720000e-002) (48, -8.67126882076263430000e-002) (49, -1.06999590992927550000e-001) (50, -6.59565534442663190000e-003) (51, 1.41805171966552730000e-001) (52, 2.35223174095153810000e-002) (53, 2.19054762274026870000e-002) (54, -9.21995565295219420000e-002) (55, -1.38146266341209410000e-001) (56, -2.38789603114128110000e-001) (57, -3.41647602617740630000e-002) (58, -1.15507811307907100000e-001) (59, 3.19863110780715940000e-002) (60, 3.38882841169834140000e-002) (61, 3.14777977764606480000e-002) (62, -5.04364892840385440000e-002) (63, -6.42805248498916630000e-002) (64, 3.81067283451557160000e-002) (65, -1.67614258825778960000e-002) (66, -1.96977674961090090000e-001) (67, -1.71472564339637760000e-001) (68, -5.09205274283885960000e-002) (69, -1.32286241278052330000e-002) (70, -1.49601072072982790000e-001) (71, -1.26071766018867490000e-001) (72, -1.44323304295539860000e-001) (73, 6.18557631969451900000e-002) (74, 2.77003850787878040000e-002) (75, -9.27353277802467350000e-002) (76, -6.08225241303443910000e-002) (77, -9.42318439483642580000e-002) (78, 3.66494692862033840000e-002) (79, 4.62299510836601260000e-002) (80, -9.86123904585838320000e-002) (81, -4.18819040060043330000e-002) (82, -1.87453567981719970000e-001) (83, -5.94122111797332760000e-002) (84, -1.44839882850646970000e-001) (85, -6.36515542864799500000e-002) (86, -6.93214535713195800000e-002) (87, -1.16741515696048740000e-001) (88, -3.09563055634498600000e-002) (89, -4.69492189586162570000e-002) (90, -2.43984237313270570000e-002) (91, -1.50896638631820680000e-001) (92, -4.06050197780132290000e-002) (93, -1.85775145888328550000e-001) (94, -6.07129968702793120000e-002) (95, -1.06162212789058690000e-001) (96, -8.85848179459571840000e-002) (97, -1.58141419291496280000e-001) (98, -1.16201177239418030000e-001) (99, 1.35316075757145880000e-002) (100, -2.04967498779296880000e-001) (0, 4.07401174306869510000e-001) (1, -2.55915701389312740000e-001) (2, -4.39157634973526000000e-001) (3, -5.36617219448089600000e-001) (4, -5.54537415504455570000e-001) (5, -3.09751868247985840000e-001) (6, 5.97521439194679260000e-002) (7, 8.51538181304931640000e-002) (8, 2.26781114935874940000e-001) (9, 4.90392833948135380000e-001) (10, 9.34339761734008790000e-002) (11, -3.14707547426223750000e-001) (12, -2.58315652608871460000e-001) (13, -2.43795409798622130000e-001) (14, -3.16243052482604980000e-001) (15, -1.57490089535713200000e-001) (16, -2.27931171655654910000e-001) (17, -2.14802250266075130000e-001) (18, -1.63016498088836670000e-001) (19, 6.92537203431129460000e-002) (20, -1.49907216429710390000e-001) (21, -5.35052180290222170000e-001) (22, -6.87562942504882810000e-001) (23, -6.98887526988983150000e-001) (24, -3.02851319313049320000e-001) (25, -5.09155914187431340000e-002) (26, 1.29032686352729800000e-001) (27, 2.86599099636077880000e-001) (28, 3.81929069757461550000e-001) (29, 1.11672244966030120000e-001) (30, 2.98209160566329960000e-001) (31, -2.14036211371421810000e-001) (32, -7.72054135799407960000e-001) (33, -6.91660046577453610000e-001) (34, -4.07943487167358400000e-001) (35, -1.09803766012191770000e-001) (36, 1.02876469492912290000e-001) (37, 1.63054510951042180000e-001) (38, 5.12033224105834960000e-001) (39, 4.86622273921966550000e-001) (40, 2.28413864970207210000e-001) (41, -2.75584846735000610000e-001) (42, -6.07430040836334230000e-001) (43, -2.43246763944625850000e-001) (44, -1.44183993339538570000e-001) (45, 5.03101348876953130000e-001) (46, 8.10189619660377500000e-002) (47, -1.63755655288696290000e-001) (48, 1.12710729241371150000e-001) (49, 2.19402074813842770000e-001) (50, -3.58653217554092410000e-001) (51, -4.22685146331787110000e-001) (52, 9.18151885271072390000e-002) (53, 3.66313666105270390000e-001) (54, 1.63231924176216130000e-001) (55, 5.01262903213500980000e-001) (56, -3.81498783826828000000e-003) (57, -1.37166902422904970000e-001) (58, -2.46386006474494930000e-001) (59, -3.65073494613170620000e-002) (60, -6.64909243583679200000e-001) (61, -1.02137319743633270000e-001) (62, 3.62095624208450320000e-001) (63, 6.75464272499084470000e-001) (64, 6.62528812885284420000e-001) (65, 5.13071477413177490000e-001) (66, 2.80156582593917850000e-001) (67, 1.29652544856071470000e-001) (68, -2.65815556049346920000e-001) (69, -4.23770904541015630000e-001) (70, -5.79546066001057620000e-003) (71, 2.42514997720718380000e-001) (72, 2.60388702154159550000e-001) (73, 6.37671887874603270000e-001) (74, 7.52945482730865480000e-001) (75, 6.45583808422088620000e-001) (76, 2.18964591622352600000e-001) (77, -1.99946209788322450000e-001) (78, -1.53560981154441830000e-001) (79, -2.75285661220550540000e-001) (80, 2.57566720247268680000e-001) (81, -8.08940529823303220000e-002) (82, 7.26419389247894290000e-002) (83, -2.12474092841148380000e-002) (84, 1.24968230724334720000e-001) (85, 6.90963491797447200000e-002) (86, -1.61618560552597050000e-001) (87, -5.38723111152648930000e-001) (88, -7.30606675148010250000e-001) (89, -6.00165903568267820000e-001) (90, -1.48347631096839900000e-001) (91, -4.00872975587844850000e-002) (92, 8.31756833940744400000e-003) (93, 1.21008165180683140000e-001) (94, 1.38891622424125670000e-001) (95, -7.91746228933334350000e-002) (96, -2.02697321772575380000e-001) (97, -4.19960975646972660000e-001) (98, -6.17369651794433590000e-001) (99, -8.95039498805999760000e-001) (100, -3.35995882749557500000e-001) (0, -1.46058499813079830000e+000) (1, -7.39894449710845950000e-001) (2, -7.58273825049400330000e-002) (3, -1.40315443277359010000e-001) (4, 6.22981861233711240000e-002) (5, -9.03982222080230710000e-002) (6, -2.16071773320436480000e-002) (7, -3.62685739994049070000e-001) (8, 4.12294089794158940000e-001) (9, 2.85243541002273560000e-001) (10, -2.11575388908386230000e-001) (11, -8.51893484592437740000e-001) (12, -6.96417033672332760000e-001) (13, -4.58127632737159730000e-003) (14, 3.27082693576812740000e-001) (15, 3.63843492232263090000e-003) (16, 1.86156779527664180000e-001) (17, -2.39971309900283810000e-001) (18, 3.90156328678131100000e-001) (19, 9.55277085304260250000e-002) (20, 1.16129174828529360000e-001) (21, -2.69354879856109620000e-002) (22, 2.56293505430221560000e-001) (23, 8.94754469394683840000e-001) (24, 8.93825829029083250000e-001) (25, 1.12766420841217040000e+000) (26, 5.37622570991516110000e-001) (27, -2.94443994760513310000e-001) (28, -5.75999915599823000000e-001) (29, 1.51763390749692920000e-002) (30, 3.98225545883178710000e-001) (31, 4.84346270561218260000e-001) (32, 2.96016335487365720000e-001) (33, -1.66428446769714360000e-001) (34, 3.21770757436752320000e-001) (35, -5.84823608398437500000e-001) (36, -1.11192572116851810000e+000) (37, -1.13481175899505620000e+000) (38, -8.46370220184326170000e-001) (39, -2.55346804857254030000e-001) (40, -2.28211864829063420000e-001) (41, 1.18418705463409420000e+000) (42, 6.97007954120635990000e-001) (43, -2.17892862856388090000e-002) (44, -1.03754520416259770000e+000) (45, -1.77918457984924320000e+000) (46, -1.67718923091888430000e+000) (47, -1.30289924144744870000e+000) (48, -8.20237934589385990000e-001) (49, -1.59655064344406130000e-002) (50, 1.86910154297947880000e-004) (51, 1.24432492256164550000e+000) (52, 9.50291574001312260000e-001) (53, 8.21978986263275150000e-001) (54, -8.23824346065521240000e-001) (55, -2.29202055931091310000e+000) (56, -2.05495452880859370000e+000) (57, -9.81457412242889400000e-001) (58, -5.89280854910612110000e-003) (59, 6.88114106655120850000e-001) (60, 3.52400168776512150000e-002) (61, 1.10555064678192140000e+000) (62, 4.69355255365371700000e-001) (63, 5.48212170600891110000e-001) (64, 1.14562436938285830000e-001) (65, -5.67391753196716310000e-001) (66, -6.17731630802154540000e-001) (67, -5.09637355804443360000e-001) (68, 6.27583444118499760000e-001) (69, 7.83875763416290280000e-001) (70, -8.79764780402183530000e-002) (71, -4.24678139388561250000e-002) (72, -2.91758589446544650000e-002) (73, 1.75758779048919680000e-001) (74, 2.95020550489425660000e-001) (75, -1.89079672098159790000e-001) (76, -7.81225323677062990000e-001) (77, -6.09916038811206820000e-002) (78, 6.59425735473632810000e-001) (79, 8.80091667175292970000e-001) (80, 2.56159394979476930000e-001) (81, -1.28667414188385010000e-001) (82, -9.03747260570526120000e-001) (83, 4.82431724667549130000e-002) (84, 5.93223273754119870000e-001) (85, 2.91642904281616210000e-001) (86, -3.63184005022048950000e-001) (87, -1.19225502014160160000e-001) (88, -2.81923621892929080000e-001) (89, 3.23163807392120360000e-001) (90, -2.81225796788930890000e-002) (91, -1.87746256589889530000e-001) (92, -8.30182790756225590000e-001) (93, -7.18978285789489750000e-001) (94, -2.87472337484359740000e-001) (95, -1.86478108167648320000e-001) (96, -2.88101404905319210000e-001) (97, -4.14276808500289920000e-001) (98, -2.23178923130035400000e-001) (99, -1.13995365798473360000e-001) (100, -1.16277642548084260000e-001) (0, 2.47937470674514770000e-001) (1, 5.44158406555652620000e-002) (2, 1.19246348738670350000e-001) (3, -4.66132014989852910000e-002) (4, -9.91502851247787480000e-002) (5, -7.33480527997016910000e-002) (6, 2.75082498788833620000e-001) (7, -2.29370761662721630000e-002) (8, 1.20125956833362580000e-001) (9, 1.20704956352710720000e-001) (10, 3.01828086376190190000e-001) (11, 2.69178956747055050000e-001) (12, 5.33891841769218440000e-002) (13, 1.05795986019074920000e-003) (14, -1.59918233752250670000e-001) (15, 3.91659215092659000000e-002) (16, 1.01262694224715230000e-002) (17, 8.62509757280349730000e-002) (18, 6.68171271681785580000e-002) (19, 1.30463000386953350000e-002) (20, -8.95760953426361080000e-002) (21, -1.75786092877388000000e-001) (22, -3.86743247509002690000e-001) (23, -4.50783222913742070000e-001) (24, -1.63385361433029170000e-001) (25, -3.05425971746444700000e-002) (26, 6.20158202946186070000e-002) (27, 1.24863930046558380000e-001) (28, 2.59179119020700450000e-002) (29, 8.07955265045166020000e-002) (30, -9.23931002616882320000e-002) (31, -3.59447687864303590000e-001) (32, -5.02188205718994140000e-001) (33, -2.79253780841827390000e-001) (34, -2.98847615718841550000e-001) (35, -2.40468140691518780000e-002) (36, -1.60135865211486820000e-001) (37, -8.72362405061721800000e-002) (38, -4.74041402339935300000e-002) (39, 2.83802766352891920000e-002) (40, -1.64716497063636780000e-001) (41, -3.51771146059036250000e-001) (42, -4.39956516027450560000e-001) (43, -3.55218291282653810000e-001) (44, -4.14596498012542720000e-002) (45, 4.19162958860397340000e-001) (46, -1.40172928571701050000e-001) (47, -2.67791301012039180000e-001) (48, -2.22618371248245240000e-001) (49, -8.97984057664871220000e-002) (50, -3.42533499002456670000e-001) (51, -2.99223423004150390000e-001) (52, -1.69500838965177540000e-002) (53, 1.69858574867248540000e-001) (54, 1.93224892020225520000e-001) (55, 3.33565175533294680000e-001) (56, -9.64580848813056950000e-002) (57, -2.35102444887161250000e-001) (58, -3.74092698097229000000e-001) (59, -1.02442637085914610000e-001) (60, -4.37313675880432130000e-001) (61, -5.85450828075408940000e-002) (62, 1.64614513516426090000e-001) (63, 3.62904816865921020000e-001) (64, 4.01215255260467530000e-001) (65, 3.00489902496337890000e-001) (66, 1.86337798833847050000e-001) (67, -2.39919558167457580000e-001) (68, -1.06754012405872340000e-001) (69, -2.12731063365936280000e-001) (70, -3.63742589950561520000e-001) (71, -6.58967867493629460000e-002) (72, -4.17019240558147430000e-002) (73, 3.21762710809707640000e-001) (74, 4.03477013111114500000e-001) (75, 4.14121717214584350000e-001) (76, 1.49590298533439640000e-001) (77, -8.91878530383110050000e-002) (78, 4.43026535212993620000e-002) (79, -1.31207257509231570000e-001) (80, 1.42948431894183160000e-002) (81, 5.04608564078807830000e-002) (82, 4.12692911922931670000e-002) (83, -1.19743943214416500000e-002) (84, 1.09611518681049350000e-001) (85, -6.62095248699188230000e-002) (86, -3.19473445415496830000e-001) (87, -2.50810980796813960000e-001) (88, -5.33412277698516850000e-001) (89, -3.99861872196197510000e-001) (90, -1.66701879352331160000e-002) (91, 1.05989530682563780000e-001) (92, 6.58794790506362920000e-002) (93, 1.80683910846710210000e-001) (94, 1.91254615783691410000e-001) (95, -1.88456222414970400000e-001) (96, -1.83402687311172490000e-001) (97, -4.53253239393234250000e-001) (98, -5.99143207073211670000e-001) (99, -6.39192759990692140000e-001) (100, -2.65150576829910280000e-001) (0, 6.28339707851409910000e-001) (1, 2.17071637511253360000e-001) (2, 1.07293114066123960000e-001) (3, -2.85979300737380980000e-001) (4, -2.61782586574554440000e-001) (5, -2.33754292130470280000e-001) (6, 1.82230070233345030000e-001) (7, 3.45444381237030030000e-002) (8, 2.77740985155105590000e-001) (9, 3.39619293808937070000e-002) (10, 7.74044752120971680000e-001) (11, 5.23216962814331050000e-001) (12, 3.73522132635116580000e-001) (13, 2.04043179750442500000e-001) (14, -1.09110489487648010000e-001) (15, -5.49723058938980100000e-002) (16, 1.41623839735984800000e-001) (17, -1.18843384087085720000e-001) (18, -2.63922035694122310000e-001) (19, -4.76516783237457280000e-001) (20, -2.26261794567108150000e-001) (21, -6.36921048164367680000e-001) (22, -5.33869147300720210000e-001) (23, -4.17263090610504150000e-001) (24, 1.82161536067724230000e-002) (25, -1.05690829455852510000e-001) (26, -4.15363861247897150000e-003) (27, 2.43291661143302920000e-001) (28, 3.93979400396347050000e-001) (29, -2.42466241121292110000e-001) (30, -5.18466353416442870000e-001) (31, -5.81901550292968750000e-001) (32, -6.71538352966308590000e-001) (33, -3.60111594200134280000e-001) (34, -3.90443980693817140000e-001) (35, -2.86260962486267090000e-001) (36, -4.94915753602981570000e-001) (37, -2.86321163177490230000e-001) (38, -3.06381434202194210000e-001) (39, -3.71547080576419830000e-002) (40, -9.33582365512847900000e-001) (41, -8.53211104869842530000e-001) (42, -8.40857923030853270000e-001) (43, -2.53868669271469120000e-001) (44, 2.95497715473175050000e-001) (45, 6.54719769954681400000e-001) (46, -4.60661679506301880000e-001) (47, -9.04727399349212650000e-001) (48, 1.27019256353378300000e-001) (49, 1.65581718087196350000e-001) (50, -6.21905624866485600000e-001) (51, -5.44423818588256840000e-001) (52, 2.34513476490974430000e-001) (53, 8.04790139198303220000e-001) (54, 7.97938704490661620000e-001) (55, 5.40048658847808840000e-001) (56, -9.82257604598999020000e-001) (57, -8.28517079353332520000e-001) (58, -7.48511135578155520000e-001) (59, -1.89754784107208250000e-001) (60, -1.10467398166656490000e+000) (61, -1.26266330480575560000e-001) (62, 5.13363718986511230000e-001) (63, 1.34558868408203130000e+000) (64, 1.48212265968322750000e+000) (65, 8.15480053424835210000e-001) (66, -1.81041210889816280000e-001) (67, -8.98888766765594480000e-001) (68, -6.48203909397125240000e-001) (69, -4.82572674751281740000e-001) (70, -6.05359554290771480000e-001) (71, 1.50035759434103970000e-002) (72, 1.86551958322525020000e-001) (73, 1.08961308002471920000e+000) (74, 1.31956768035888670000e+000) (75, 1.23443710803985600000e+000) (76, 3.87996882200241090000e-001) (77, -4.02069151401519780000e-001) (78, -1.02440468966960910000e-001) (79, -5.42417168617248540000e-001) (80, 6.88994750380516050000e-002) (81, 3.21637570858001710000e-001) (82, 9.47912260890007020000e-002) (83, 7.27064907550811770000e-002) (84, 3.90229165554046630000e-001) (85, 1.58608257770538330000e-001) (86, -2.41771847009658810000e-001) (87, -3.46722126007080080000e-001) (88, -6.06512248516082760000e-001) (89, -5.06499290466308590000e-001) (90, -5.96014261245727540000e-002) (91, 1.78947627544403080000e-001) (92, -5.95998056232929230000e-002) (93, 6.02717883884906770000e-002) (94, -1.30972012877464290000e-001) (95, -3.46474647521972660000e-001) (96, -6.47875070571899410000e-001) (97, -7.51696467399597170000e-001) (98, -5.87355315685272220000e-001) (99, -5.49456596374511720000e-001) (100, -2.85338282585144040000e-001) (0, -4.92186397314071660000e-001) (1, -3.70004773139953610000e-001) (2, -1.62956431508064270000e-001) (3, -1.93082064390182500000e-001) (4, -4.33387637138366700000e-001) (5, -2.25355491042137150000e-001) (6, -2.14315146207809450000e-001) (7, -1.72512531280517580000e-001) (8, -2.77324616909027100000e-002) (9, 6.10203623771667480000e-001) (10, -6.50414288043975830000e-001) (11, -1.07951104640960690000e+000) (12, -9.09291565418243410000e-001) (13, -4.29489076137542720000e-001) (14, -4.50151503086090090000e-001) (15, -4.64421778917312620000e-001) (16, -7.22176790237426760000e-001) (17, -7.16395735740661620000e-001) (18, -3.76878291368484500000e-001) (19, -3.11427544802427290000e-002) (20, -2.85924792289733890000e-001) (21, -5.14261603355407710000e-001) (22, -2.49446541070938110000e-001) (23, -4.78923499584198000000e-001) (24, 3.63227158784866330000e-001) (25, 1.15877091884613040000e-001) (26, -8.77474322915077210000e-002) (27, -5.04184842109680180000e-001) (28, -3.45263093709945680000e-001) (29, 9.27500054240226750000e-002) (30, 1.16238119080662730000e-002) (31, 2.33255207538604740000e-001) (32, 1.42489999532699580000e-001) (33, 7.84181244671344760000e-003) (34, 8.03827524185180660000e-001) (35, -2.65886843204498290000e-001) (36, -6.87460422515869140000e-001) (37, -1.22750721871852870000e-001) (38, -3.47863733768463130000e-001) (39, 2.48079374432563780000e-001) (40, -1.04296572506427760000e-001) (41, 5.04767537117004390000e-001) (42, 3.79663556814193730000e-001) (43, 8.41192185878753660000e-001) (44, 8.82445335388183590000e-001) (45, 4.25258785486221310000e-001) (46, 6.99637318029999730000e-003) (47, 7.66239985823631290000e-002) (48, 1.41775682568550110000e-001) (49, -1.49854391813278200000e-001) (50, -2.59460240602493290000e-001) (51, 2.19141080975532530000e-001) (52, 5.45566558837890630000e-001) (53, 8.61876189708709720000e-001) (54, 3.11346918344497680000e-001) (55, -5.19350230693817140000e-001) (56, -6.03832542896270750000e-001) (57, -2.95775175094604490000e-001) (58, -1.03119812905788420000e-001) (59, -2.00536504387855530000e-001) (60, 2.81527668237686160000e-001) (61, 9.54238474369049070000e-001) (62, 1.02459383010864260000e+000) (63, 8.55965241789817810000e-002) (64, -3.31093609333038330000e-001) (65, -9.90172743797302250000e-001) (66, -7.65923559665679930000e-001) (67, -8.42438280582427980000e-001) (68, -1.53194501996040340000e-001) (69, -8.75073820352554320000e-002) (70, 7.96650171279907230000e-001) (71, 7.04976618289947510000e-001) (72, 1.04220449924468990000e+000) (73, 1.02320504188537600000e+000) (74, -3.13047826290130620000e-001) (75, -9.70046401023864750000e-001) (76, -4.76131677627563480000e-001) (77, -6.96881487965583800000e-002) (78, 4.14293706417083740000e-002) (79, 2.28712424635887150000e-001) (80, 6.43324315547943120000e-001) (81, -7.64578357338905330000e-002) (82, -1.39776349067687990000e-001) (83, -4.18327488005161290000e-002) (84, -2.50678300857543950000e-001) (85, -1.63652151823043820000e-001) (86, -1.24024085700511930000e-001) (87, 1.24445654451847080000e-001) (88, 2.81615644693374630000e-001) (89, -1.41727060079574580000e-001) (90, 3.08934617787599560000e-002) (91, 2.83190786838531490000e-001) (92, 1.53389021754264830000e-001) (93, -5.11265695095062260000e-001) (94, -7.43348181247711180000e-001) (95, -4.06404882669448850000e-001) (96, -4.06411349773406980000e-001) (97, -3.23411256074905400000e-001) (98, 1.56748414039611820000e-001) (99, 4.69778090715408330000e-001) (100, -4.84062045812606810000e-001) (0, -4.30964916944503780000e-001) (1, -5.28151392936706540000e-001) (2, -3.63565504550933840000e-001) (3, -2.77899384498596190000e-001) (4, 7.13805407285690310000e-002) (5, 5.09654700756073000000e-001) (6, 6.69239878654479980000e-001) (7, 5.19144296646118160000e-001) (8, 6.19241654872894290000e-001) (9, 5.84314107894897460000e-001) (10, -3.10953855514526370000e-002) (11, 3.12405377626419070000e-002) (12, -9.02817957103252410000e-003) (13, -8.38621556758880620000e-002) (14, 1.06137275695800780000e-001) (15, -8.40807985514402390000e-003) (16, -8.04756730794906620000e-002) (17, 1.22396782040596010000e-001) (18, 4.14483189582824710000e-001) (19, 8.26721847057342530000e-001) (20, 2.44267672300338750000e-001) (21, 2.33858317136764530000e-001) (22, 1.66635170578956600000e-001) (23, -5.15765190124511720000e-001) (24, -1.24283909797668460000e+000) (25, -1.18955659866333010000e+000) (26, -7.21469879150390630000e-001) (27, 5.96457779407501220000e-001) (28, 7.57447302341461180000e-001) (29, 6.03789627552032470000e-001) (30, 3.30243229866027830000e-001) (31, 1.63858503103256230000e-001) (32, 1.13878354430198670000e-001) (33, -5.26630997657775880000e-001) (34, -7.69075632095336910000e-001) (35, -8.95291328430175780000e-001) (36, -5.07210969924926760000e-001) (37, 1.19343392550945280000e-001) (38, 5.53968429565429690000e-001) (39, 5.51404833793640140000e-001) (40, 3.48964005708694460000e-001) (41, 2.20352932810783390000e-001) (42, -8.24011936783790590000e-002) (43, -4.75327253341674800000e-001) (44, -5.37718653678894040000e-001) (45, -6.53427779674530030000e-001) (46, -5.02345800399780270000e-001) (47, -5.06136000156402590000e-001) (48, 3.97014096379280090000e-002) (49, 2.89473563432693480000e-001) (50, -2.45392709970474240000e-001) (51, -1.64068937301635740000e-001) (52, -4.31275628507137300000e-002) (53, 1.38492688536643980000e-001) (54, 1.18009977042675020000e-001) (55, 1.56704634428024290000e-001) (56, -1.58245265483856200000e-002) (57, -1.30441382527351380000e-001) (58, -1.38963848352432250000e-001) (59, 3.78146797418594360000e-001) (60, -4.43220883607864380000e-001) (61, 9.61568281054496770000e-002) (62, 1.11802443861961360000e-001) (63, 1.60811856389045720000e-001) (64, 2.97931969165802000000e-001) (65, 1.61157533526420590000e-001) (66, -9.53653901815414430000e-002) (67, -2.61049479246139530000e-001) (68, -6.22107207775115970000e-001) (69, -1.25504791736602780000e-001) (70, 4.31045591831207280000e-001) (71, 1.68890297412872310000e-001) (72, -1.33951380848884580000e-003) (73, -6.14729523658752440000e-002) (74, -1.50733739137649540000e-001) (75, -4.51991707086563110000e-001) (76, -7.17226803302764890000e-001) (77, -7.49706804752349850000e-001) (78, -2.55328059196472170000e-001) (79, -3.61935019493103030000e-001) (80, 3.98167282342910770000e-001) (81, 3.35151493549346920000e-001) (82, 9.58307385444641110000e-002) (83, 4.25371378660202030000e-002) (84, -8.53186249732971190000e-002) (85, 1.42534300684928890000e-001) (86, -4.14793074131011960000e-001) (87, 2.87816338241100310000e-002) (88, -7.41674704477190970000e-003) (89, 8.58354791998863220000e-002) (90, 1.55159369111061100000e-001) (91, 3.29258531332015990000e-001) (92, 5.64462184906005860000e-001) (93, 3.36795240640640260000e-001) (94, 5.20294606685638430000e-002) (95, 2.97793690115213390000e-002) (96, 3.93258780241012570000e-002) (97, 1.09521754086017610000e-001) (98, -1.53277605772018430000e-001) (99, -3.27522695064544680000e-001) (100, -2.62748003005981450000e-001) (0, -2.69754528999328610000e-001) (1, 1.22531846165657040000e-001) (2, 2.62550503015518190000e-001) (3, 2.28840857744216920000e-001) (4, 2.44410172104835510000e-001) (5, 2.96559572219848630000e-001) (6, 1.97474479675292970000e-001) (7, -6.05737715959548950000e-002) (8, -1.27027004957199100000e-001) (9, -2.88970340043306350000e-002) (10, -6.44451454281806950000e-002) (11, -2.60152786970138550000e-001) (12, -4.39441651105880740000e-001) (13, -1.75147697329521180000e-001) (14, -7.60690271854400630000e-002) (15, -2.32585698366165160000e-001) (16, 7.23319053649902340000e-002) (17, -2.25290451198816300000e-002) (18, 6.35939985513687130000e-002) (19, 1.11295424401760100000e-001) (20, -6.24094270169734950000e-002) (21, -1.77379161119461060000e-001) (22, -1.32744029164314270000e-001) (23, -2.56702125072479250000e-001) (24, 6.34915083646774290000e-002) (25, -2.02480405569076540000e-002) (26, -5.03823580220341680000e-003) (27, -6.81244656443595890000e-002) (28, -6.67412430047988890000e-002) (29, 2.85799115896224980000e-001) (30, 8.92952159047126770000e-002) (31, -1.86149299144744870000e-001) (32, -1.98934108018875120000e-001) (33, -3.21841001510620120000e-001) (34, -9.21461284160614010000e-002) (35, -4.43902164697647090000e-001) (36, -3.03677260875701900000e-001) (37, -8.32557156682014470000e-002) (38, -8.37188512086868290000e-002) (39, 1.93207431584596630000e-002) (40, 1.45913541316986080000e-001) (41, 1.69059023261070250000e-001) (42, 1.35484978556633000000e-001) (43, -1.08087435364723210000e-001) (44, -2.65309154987335210000e-001) (45, -2.83452689647674560000e-001) (46, -4.80345450341701510000e-002) (47, 1.61216691136360170000e-001) (48, 9.37620028853416440000e-002) (49, -7.68698081374168400000e-002) (50, -1.56584512442350390000e-002) (51, 4.45986360311508180000e-001) (52, 9.36120450496673580000e-002) (53, 1.91832557320594790000e-001) (54, -1.59521758556365970000e-001) (55, -8.57229650020599370000e-001) (56, -1.32140725851058960000e-001) (57, 5.21269664168357850000e-002) (58, 1.88868761062622070000e-001) (59, 6.94145411252975460000e-002) (60, 1.50633081793785100000e-001) (61, 4.54347759485244750000e-001) (62, 2.81523823738098140000e-001) (63, -2.24352665245532990000e-002) (64, -2.38042682409286500000e-001) (65, -6.94839775562286380000e-001) (66, -2.45437398552894590000e-001) (67, -9.42991599440574650000e-002) (68, 2.32989922165870670000e-001) (69, 4.74954515695571900000e-001) (70, 7.45601281523704530000e-002) (71, 2.09569185972213750000e-001) (72, 5.35747647285461430000e-001) (73, 4.17396843433380130000e-001) (74, 9.16438736021518710000e-003) (75, -5.18033564090728760000e-001) (76, -5.33117771148681640000e-001) (77, -1.81520879268646240000e-001) (78, 1.24988645315170290000e-001) (79, 3.69417101144790650000e-001) (80, 1.64999976754188540000e-001) (81, -1.14844478666782380000e-001) (82, 1.69981662184000020000e-002) (83, 1.05590127408504490000e-001) (84, 8.49757790565490720000e-002) (85, -1.43862977623939510000e-001) (86, -4.01698648929595950000e-001) (87, -1.57831788063049320000e-001) (88, -5.74618903920054440000e-003) (89, 1.17670275270938870000e-001) (90, -1.95266649127006530000e-001) (91, -7.01387673616409300000e-002) (92, -1.93311825394630430000e-001) (93, -2.36009120941162110000e-001) (94, -3.70203778147697450000e-002) (95, -2.02393233776092530000e-001) (96, -1.93908467888832090000e-001) (97, -2.82226413488388060000e-001) (98, -4.93151210248470310000e-002) (99, 1.35237321257591250000e-001) (100, -2.05259457230567930000e-001) (0, -4.88082259893417360000e-001) (1, 1.82576671242713930000e-001) (2, 5.08861899375915530000e-001) (3, 6.46444320678710940000e-001) (4, 7.28235781192779540000e-001) (5, 3.85873734951019290000e-001) (6, 3.88170242309570310000e-001) (7, 9.02628526091575620000e-002) (8, 6.07989914715290070000e-002) (9, 3.96019577980041500000e-001) (10, -8.82682204246521000000e-003) (11, 1.88467264175415040000e-001) (12, 2.41666473448276520000e-002) (13, 1.97194516658782960000e-001) (14, 2.83755719661712650000e-001) (15, 3.24065014719963070000e-002) (16, 1.91945359110832210000e-001) (17, -1.03066228330135350000e-001) (18, 1.11835420131683350000e-001) (19, 3.66674095392227170000e-001) (20, 4.33550365269184110000e-002) (21, 4.00969117879867550000e-001) (22, 3.85435223579406740000e-001) (23, -7.39360034465789790000e-001) (24, -1.49293959140777590000e+000) (25, -1.10707104206085210000e+000) (26, -3.09395380318164830000e-002) (27, 6.33041024208068850000e-001) (28, 8.16336199641227720000e-002) (29, -3.59206926077604290000e-003) (30, -1.22849471867084500000e-001) (31, 7.34996557235717770000e-001) (32, 4.26337599754333500000e-001) (33, -2.51165866851806640000e-001) (34, -7.37940490245819090000e-001) (35, -1.44115340709686280000e+000) (36, -1.01582407951354980000e+000) (37, 1.58226579427719120000e-001) (38, 6.57443940639495850000e-001) (39, -1.54962893575429920000e-002) (40, -2.95919150114059450000e-001) (41, 2.51588284969329830000e-001) (42, 5.91583132743835450000e-001) (43, -6.25496655702590940000e-002) (44, -3.42108905315399170000e-001) (45, -9.69148516654968260000e-001) (46, -1.02856254577636720000e+000) (47, -6.36229991912841800000e-001) (48, -6.52010440826416020000e-002) (49, 2.60594755411148070000e-001) (50, -4.69483286142349240000e-001) (51, -1.87050886452198030000e-002) (52, 1.43956899642944340000e-001) (53, 2.86774754524230960000e-001) (54, 1.43549442291259770000e-001) (55, -5.28244733810424800000e-001) (56, -8.06796491146087650000e-001) (57, -5.54578423500061040000e-001) (58, -1.34488523006439210000e-001) (59, 6.62699520587921140000e-001) (60, -7.05423593521118160000e-001) (61, 1.53035297989845280000e-001) (62, -2.93636083602905270000e-001) (63, -2.55448907613754270000e-001) (64, -4.69312034547328950000e-002) (65, 4.30733039975166320000e-002) (66, -3.19698780775070190000e-001) (67, -8.37742924690246580000e-001) (68, -2.31425523757934570000e-001) (69, 4.03668016195297240000e-001) (70, -6.63477182388305660000e-001) (71, -3.53169322013854980000e-001) (72, -3.66003721952438350000e-001) (73, 1.94576643407344820000e-002) (74, 2.03679129481315610000e-001) (75, 8.28642427921295170000e-001) (76, 7.70745635032653810000e-001) (77, 1.47451721131801610000e-002) (78, 3.81856590509414670000e-001) (79, -4.48594428598880770000e-002) (80, -7.22034096717834470000e-001) (81, -5.63407599925994870000e-001) (82, -7.68472015857696530000e-001) (83, -6.07733845710754390000e-001) (84, 4.28049303591251370000e-002) (85, 4.23642903566360470000e-001) (86, 2.39406064152717590000e-001) (87, 4.65795099735260010000e-001) (88, 2.26067364215850830000e-001) (89, 1.08124546706676480000e-001) (90, -2.80343413352966310000e-001) (91, -2.84072965383529660000e-001) (92, -1.14708341658115390000e-001) (93, -3.34534704685211180000e-001) (94, -6.17533564567565920000e-001) (95, -6.68455898761749270000e-001) (96, -3.74673038721084590000e-001) (97, -2.05877706408500670000e-001) (98, -1.82557076215744020000e-001) (99, -3.13257873058319090000e-001) (100, 1.05645656585693360000e-001) (0, -7.05054223537445070000e-001) (1, -6.06778403744101520000e-003) (2, 2.01045289635658260000e-001) (3, -4.19500842690467830000e-002) (4, -4.83744069933891300000e-002) (5, -2.47315824031829830000e-001) (6, 4.22906428575515750000e-002) (7, -2.03257918357849120000e-001) (8, 9.22738313674926760000e-002) (9, 4.40384417772293090000e-001) (10, -2.29961454868316650000e-001) (11, 1.58722713589668270000e-001) (12, 3.54512214660644530000e-001) (13, 1.74130126833915710000e-001) (14, 2.50893414020538330000e-001) (15, -2.47144937515258790000e-001) (16, -7.00536906719207760000e-001) (17, -6.30505979061126710000e-001) (18, -5.44702053070068360000e-001) (19, 5.61644211411476140000e-002) (20, 9.42674949765205380000e-002) (21, 5.16127705574035640000e-001) (22, 2.11615666747093200000e-001) (23, -3.20689857006073000000e-001) (24, -1.22625648975372310000e+000) (25, -3.79246354103088380000e-001) (26, 1.69196397066116330000e-001) (27, 3.65579843521118160000e-001) (28, -1.27501323819160460000e-001) (29, -3.08929204940795900000e-001) (30, 3.40977758169174190000e-001) (31, 2.77640014886856080000e-001) (32, -7.93134272098541260000e-002) (33, -4.76508557796478270000e-001) (34, -7.10729897022247310000e-001) (35, -8.81699979305267330000e-001) (36, 5.42456135153770450000e-002) (37, 5.84250688552856450000e-001) (38, 6.96681916713714600000e-001) (39, -1.03089660406112670000e-001) (40, 5.99866986274719240000e-001) (41, 2.69781261682510380000e-001) (42, -7.76839107275009160000e-002) (43, -7.81232893466949460000e-001) (44, -1.70173585414886470000e+000) (45, -9.73222792148590090000e-001) (46, 1.64772421121597290000e-001) (47, 4.10201936960220340000e-001) (48, 4.55687850713729860000e-001) (49, 4.06715720891952510000e-002) (50, -5.06762750446796420000e-002) (51, 4.09624772146344180000e-003) (52, -7.87043869495391850000e-002) (53, -1.20267599821090700000e-001) (54, -1.29489630460739140000e-001) (55, -1.02712355554103850000e-001) (56, -1.21863029897212980000e-001) (57, 6.63622915744781490000e-002) (58, 2.84038364887237550000e-001) (59, 8.78286004066467290000e-001) 